tree
version=v4
num_class=1
num_tree_per_iteration=1
label_index=0
max_feature_idx=15
objective=binary sigmoid:1
feature_names=Column_0 Column_1 Column_2 Column_3 Column_4 Column_5 Column_6 Column_7 Column_8 Column_9 Column_10 Column_11 Column_12 Column_13 Column_14 Column_15
feature_infos=[0:0.73777592182159424] [0:0.70758092403411865] [0:0.67647606134414673] [0:1] [0:1] [0:0.21972246468067169] [0:1] [0:1] [0:1] [0.069314718246459961:0.16094379127025604] [0:1] [0:1] [0:1] [-1:0.6808398962020874] [0:0.5] [0:0.65200382471084595]
tree_sizes=2351 2469 2164 2686 2575 2581 2585 2383 2692 2581 2375 2698 2482 2282 2063 2261 2277 2282 2175 2389 2395 2083 2484 2608 2589 1861 2065 1756 1634 2161 1104 887 887 1976 2067 1992 1107 1754 1417 2176 2048 2275 1998 1734 1103 2188 1645 1996 2291 795 1840 791 1516 2641 1203 1440 1312 2306 1005 1005 2214 2116 1344 1402 1516 2512 2722 1729 796 793 2628 786 2527 2743 900 1558 1653 1009 901 896 1322 1325 1217 1424 1946 2607 1416 2008 1315 1010 1548 1535 1217 1645 1540 1439 797 1750 1535 896 903 900 1013 1535

Tree=0
num_leaves=21
num_cat=0
split_feature=10 9 12 12 9 0 2 13 13 2 2 9 2 13 13 13 13 13 1 2
split_gain=3927.98 347.874 316.983 19.9334 9.12503 8.63023 5.87062 5.8439 3.97993 0.701804 0.0630957 0.095805 0.549205 0.0605929 0.0583851 0.0338358 0.0424013 2.27374e-13 2.84217e-14 2.84217e-14
threshold=1.0000000180025095e-35 0.1242453344166279 1.0000000180025095e-35 1.0000000180025095e-35 0.089587975293397917 1.0000000180025095e-35 0.53466320037841808 0.39924015104770666 0.34347636997699743 0.57497066259384166 0.55949765443801891 0.1242453344166279 0.63704013824462902 0.35053814947605139 0.41551460325717932 0.41572935879230505 0.42681017518043524 0.39176903665065771 0.63910791277885448 0.64565110206604015
decision_type=2 2 2 2 2 2 2 2 2 2 2 2 2 2 2 2 2 2 2 2
left_child=1 3 18 4 5 -1 8 -4 -5 -8 15 12 -12 -6 -9 17 -17 -2 -3 -14
right_child=10 2 7 6 13 -7 9 14 -10 -11 11 -13 19 -15 -16 16 -18 -19 -20 -21
leaf_value=-0.32388077839137958 0.36190320413018845 -0.40044889294475855 0.20943278471519899 -0.18824779375894857 -0.39962294267707171 -0.39820006669969971 -0.37168088928155302 0.34634499806743435 -0.28609607838351647 -0.32158488290252268 0.31522858594192638 0.36190320413018845 0.36190320413018845 -0.39197831408837025 0.36190320413018845 0.3469551237953854 0.36190320413018845 0.36190320413018845 -0.40044889294475855 0.36190320413018845
leaf_weight=171.72565618157387 413.44139057397842 22.996739983558655 12.49822825193405 24.24656280875206 230.71729353070259 84.737987548112869 13.248121947050093 12.248263686895369 39.994330406188965 43.493834316730499 12.248263686895369 51.742664963006973 18.997306942939758 44.993621706962585 30.745641499757767 12.748192816972734 14.99787390232086 12.248263686895369 13.248121947050093 17.247554987668991
leaf_count=687 1654 92 50 97 923 339 53 49 160 174 49 207 76 180 123 51 60 49 53 69
internal_value=-0.0238954 -0.309632 0.0378516 -0.358436 -0.374309 -0.348437 -0.288616 0.324129 -0.249165 -0.333281 0.360526 0.3562 0.350114 -0.398375 0.357471 0.361483 0.355035 0.361903 -0.400449 0.361903
internal_weight=1298.57 744.894 91.737 653.157 532.175 256.464 120.983 55.4921 64.2409 56.742 553.672 100.236 48.4931 275.711 42.9939 453.436 27.7461 425.69 36.2449 36.2449
internal_count=5195 2980 367 2613 2129 1026 484 222 257 227 2215 401 194 1103 172 1814 111 1703 145 145
is_linear=0
shrinkage=1


Tree=1
num_leaves=22
num_cat=0
split_feature=10 8 9 9 0 2 2 2 13 8 2 13 12 13 13 9 13 1 13 13 13
split_gain=2671.63 290.766 213.065 9.324 5.90818 15.3989 4.22075 1.38788 1.2856 0.139535 0.221537 0.0751252 0.0687439 0.0522675 0.461202 0.0741763 0.0171427 0.00663234 0.000568697 0.000726893 0.000544571
threshold=1.0000000180025095e-35 1.0000000180025095e-35 0.1242453344166279 0.089587975293397917 1.0000000180025095e-35 0.57639136910438549 0.55475828051567089 0.59076857566833507 0.43066605925560003 1.0000000180025095e-35 0.53466320037841808 0.4026616513729096 1.0000000180025095e-35 0.34154324233531957 0.35524825751781469 0.1242453344166279 0.34069961309432989 0.51238930225372326 0.41572935879230505 0.42681017518043524 0.41863144934177404
decision_type=2 2 2 2 2 2 2 2 2 2 2 2 2 2 2 2 2 2 2 2 2
left_child=1 3 6 4 5 -1 8 -8 -3 10 12 -4 -2 15 -15 -5 -6 18 -11 -20 -13
right_child=9 2 11 13 16 -7 7 -9 -10 17 -12 20 -14 14 -16 -17 -18 -19 19 -21 -22
leaf_value=-0.20022579346416572 0.30754952917943013 -0.096326543170147397 0.34082755494990791 -0.31675261085229856 -0.31235853696877991 -0.30001301019846999 -0.29400271878154399 -0.21060070102989398 -0.17320597344066982 0.32325815490888188 0.29959451535849863 0.32479893428533024 0.32325815490888188 -0.28238199512056844 -0.32047719479737485 -0.32768154619540668 -0.31891951402624158 0.3269159962556249 0.32525661975137732 0.32325815490888188 0.32325815490888188
leaf_weight=105.11859293282032 12.100112885236738 11.988511919975279 12.31301526725292 208.37308891117573 60.574625387787819 120.56919023394585 12.130887985229494 17.991078332066536 23.153317421674728 392.2650653719902 23.962669685482979 12.123921439051626 61.707336008548737 14.913869991898535 51.018077537417412 25.288493245840073 18.99654284119606 19.446624666452408 12.131239473819734 14.519373178482054 26.618850827217102
leaf_count=430 50 49 50 867 252 495 50 74 95 1621 99 50 255 62 212 105 79 80 50 60 110
internal_value=-0.000146255 -0.239653 0.0362678 -0.292716 -0.269277 -0.253535 -0.191845 -0.244189 -0.146979 0.322024 0.315514 0.327861 0.320683 -0.316598 -0.31186 -0.317935 -0.313925 0.323476 0.323316 0.324168 0.32374
internal_weight=1257.3 721.172 116.32 604.852 305.259 225.688 65.2638 30.122 35.1418 536.132 97.7701 51.0558 73.8074 299.594 65.9319 233.662 79.5712 438.362 418.916 26.6506 38.7428
internal_count=5195 2980 478 2502 1256 925 268 124 144 2215 404 210 305 1246 274 972 331 1811 1731 110 160
is_linear=0
shrinkage=0.190561


Tree=2
num_leaves=19
num_cat=0
split_feature=10 8 9 9 15 2 2 2 8 2 15 1 15 1 1 0 1 1
split_gain=1921.93 210.845 151.442 8.7757 6.51074 13.7916 3.27469 1.14504 0.123195 0.198066 0.0573251 0.0844364 0.0308649 0.00723801 0.00241098 0.000108922 1.14618e-05 1.13687e-13
threshold=1.0000000180025095e-35 1.0000000180025095e-35 0.1242453344166279 0.089587975293397917 1.0000000180025095e-35 0.57846352458000194 0.55475828051567089 0.59076857566833507 1.0000000180025095e-35 0.53466320037841808 0.14931329339742663 0.4226807057857514 0.20707555860280993 0.3276966810226441 0.51238930225372326 1.0000000180025095e-35 0.33140207827091223 0.36632329225540167
decision_type=2 2 2 2 2 2 2 2 2 2 2 2 2 2 2 2 2 2
left_child=1 3 6 4 5 -1 -3 -8 9 13 11 -5 -12 -2 15 17 -15 -10
right_child=8 2 -4 10 -6 -7 7 -9 14 -11 12 -13 -14 16 -16 -17 -18 -19
leaf_value=-0.16960179316459895 0.28261435375940186 -0.12274840549985006 0.28948421163371552 -0.27493299053745712 -0.28223018964465157 -0.26678077186452576 -0.25735141220980179 -0.17926082407486812 0.28660546341127269 0.26334240055848207 -0.29411403993961538 -0.28363514215085228 -0.28358608929985601 0.28660546341127258 0.28890060384710925 0.28692418996863339 0.28686976591167201 0.28660546341127269
leaf_weight=109.41102124750614 44.164667814970016 34.172065019607544 47.183147996664047 85.736567676067352 74.347170010209084 102.91593803465366 11.300450235605242 17.191853359341621 270.49302259087563 22.238133385777473 11.229730173945425 76.722319006919861 101.61474227905273 12.254626229405405 17.957884669303894 43.94110207259655 11.596496313810347 71.299643516540527
leaf_count=467 198 144 210 387 336 453 50 74 1214 99 50 348 461 55 80 197 52 320
internal_value=-3.53664e-05 -0.209837 0.0316275 -0.257035 -0.233699 -0.216705 -0.162526 -0.210233 0.285319 0.278955 -0.281334 -0.279043 -0.284634 0.284059 0.286742 0.286642 0.286734 0.286605
internal_weight=1165.77 671.825 109.848 561.977 286.674 212.327 62.6644 28.4923 493.946 90.2539 275.303 162.459 112.844 68.0158 403.692 385.734 23.8511 341.793
internal_count=5195 2980 478 2502 1256 920 268 124 2215 404 1246 735 511 305 1811 1731 107 1534
is_linear=0
shrinkage=0.190561


Tree=3
num_leaves=24
num_cat=0
split_feature=10 8 9 9 15 1 1 1 13 8 1 13 13 13 9 13 6 1 1 13 13 13 13
split_gain=1428.64 158.259 111.005 8.97426 6.47606 11.6572 2.72797 0.984366 0.774117 0.126385 0.172809 0.0646782 0.474823 0.0302878 0.0252401 0.0136299 0.00782109 0.0135172 0.000995756 9.89481e-05 9.3663e-05 0.000132456 2.29923e-07
threshold=1.0000000180025095e-35 1.0000000180025095e-35 0.1242453344166279 0.089587975293397917 1.0000000180025095e-35 0.40071678161621099 0.39415347576141363 0.45744983851909643 0.42560879886150366 1.0000000180025095e-35 0.34811218082904821 0.34154324233531957 0.35524825751781469 0.33992490172386175 0.1242453344166279 0.4026616513729096 1.0000000180025095e-35 0.3276966810226441 0.51238930225372326 0.41863144934177404 0.41572935879230505 0.42681017518043524 0.35347189009189611
decision_type=2 2 2 2 2 2 2 2 2 2 2 2 2 2 2 2 2 2 2 2 2 2 2
left_child=1 3 6 4 5 -1 8 -8 -3 10 16 14 -13 -6 -5 -4 17 -2 20 -17 22 -22 -11
right_child=9 2 15 11 13 -7 7 -9 -10 18 -12 12 -14 -15 -16 19 -18 -19 -20 -21 21 -23 -24
leaf_value=-0.14404025196965003 0.25542355695665125 -0.071314700563727434 0.27063630301392383 -0.25875199853711583 -0.26123547973335665 -0.23659500731311248 -0.22686983649860898 -0.14903832215732898 -0.12846248364822424 0.26267191819414598 0.2399978484400152 -0.21946136509328876 -0.26179868148052182 -0.25206290966812972 -0.26576432806277744 0.26318847999639394 0.26289521819260159 0.26266650486566784 0.26423069192199822 0.26246466772320554 0.26358856615684056 0.26264896063204979 0.26264922796664197
leaf_weight=99.528514623641968 24.001353532075882 14.192390978336332 10.400635853409765 170.78936946392059 48.543613970279694 98.14331690967083 12.215888589620592 11.414629966020582 21.873322799801826 305.71451459825039 21.946942448616028 12.489526271820067 41.861720040440559 17.889975041151047 20.922976821660995 9.9898885339498538 19.74453216791153 15.334997013211249 16.081493854522705 21.87942773103714 10.014691948890688 11.948037743568419 17.125549390912056
leaf_count=446 120 62 50 867 246 474 58 52 96 1535 108 62 212 90 105 50 99 77 80 110 50 60 86
internal_value=0.000129137 -0.18837 0.0283616 -0.231688 -0.207292 -0.189993 -0.138948 -0.189274 -0.105974 0.261238 0.254437 -0.257872 -0.25207 -0.258765 -0.259517 0.264646 0.259801 0.258247 0.262765 0.262692 0.262697 0.263077 0.262671
internal_weight=1054.05 612.135 101.966 510.169 264.105 197.672 59.6962 23.6305 36.0657 441.912 81.0278 246.064 54.3512 66.4336 191.712 42.27 59.0809 39.3364 360.884 31.8693 344.803 21.9627 322.84
internal_count=5195 2980 478 2502 1256 920 268 110 158 2215 404 1246 274 336 972 210 296 197 1811 160 1731 110 1621
is_linear=0
shrinkage=0.190561


Tree=4
num_leaves=23
num_cat=0
split_feature=10 12 9 9 1 2 2 13 13 2 2 9 2 13 13 13 13 14 2 11 2 2
split_gain=1084.17 90.3481 99.8822 8.64172 9.22678 6.56122 3.25448 3.56979 2.29767 1.03111 0.0910548 0.126942 0.703281 0.0531001 0.048393 0.0561904 0.0356312 0.0280293 0.00196276 0.000162779 3.26531e-05 1.21112e-05
threshold=1.0000000180025095e-35 1.0000000180025095e-35 0.1242453344166279 0.089587975293397917 0.4774476438760758 0.58128637075424205 0.53466320037841808 0.34347636997699743 0.39924015104770666 0.57497066259384166 0.55949765443801891 0.1242453344166279 0.63704013824462902 0.51710885763168346 0.41572935879230505 0.42681017518043524 0.41551460325717932 1.0000000180025095e-35 0.52666822075843822 1.0000000180025095e-35 0.5347418785095216 0.64349642395973217
decision_type=2 2 2 2 2 2 2 2 2 2 2 2 2 2 2 2 2 2 2 2 2 2
left_child=1 3 6 4 5 -1 7 -3 -4 -8 14 12 -12 17 18 -16 -10 -5 19 -2 -20 -14
right_child=10 2 8 13 -6 -7 9 -9 16 -11 11 -13 21 -15 15 -17 -18 -19 20 -21 -22 -23
leaf_value=-0.16956733525527798 0.24606304831488457 -0.049137727577350222 0.1352048986730339 -0.24702505943828079 -0.0088535687118524789 -0.24422309766035788 -0.23077442792014663 -0.14792670836961086 0.2313573394832435 -0.16280731856774794 0.18326857230666557 0.24601388748577255 0.24573761889176413 -0.23096347241329493 0.22544458119979757 0.24599750841124232 0.24585274306413035 -0.24222592245710875 0.24730895626967073 0.24663214914725032 0.24764869304777606 0.24601388748577255
leaf_weight=115.20037028193474 226.91191801428795 21.541384622454643 9.7413066774606687 64.739970117807388 9.9506265670061094 67.972481369972229 10.605791732668875 34.647314831614494 8.6391717940568942 34.380619943141937 8.7608875185251218 36.141756892204285 8.879993289709093 12.519624441862105 8.9646314680576342 10.474169254302977 21.441200852394104 139.24511122703552 37.283840775489807 19.847374796867371 14.18055486679077 16.412198781967163
leaf_count=607 1299 97 50 369 52 367 53 160 49 174 49 207 51 72 51 60 123 807 211 113 80 94
internal_value=0.000319034 -0.171581 -0.0400118 -0.216869 -0.187563 -0.197271 -0.140635 -0.110053 0.215641 -0.178831 0.244359 0.238148 0.229799 -0.24301 0.245732 0.236519 0.24169 -0.243749 0.246332 0.246109 0.247403 0.245917
internal_weight=938.482 550.625 140.997 409.628 193.123 183.173 101.175 56.1887 39.8217 44.9864 387.857 70.1948 34.0531 216.505 317.662 19.4388 30.0804 203.985 298.224 246.759 51.4644 25.2922
internal_count=5195 2980 706 2274 1026 974 484 257 222 227 2215 401 194 1248 1814 111 172 1176 1703 1412 291 145
is_linear=0
shrinkage=0.190561


Tree=5
num_leaves=23
num_cat=0
split_feature=7 8 9 9 1 2 2 2 13 8 2 13 13 1 13 1 6 1 13 13 13 11
split_gain=828.143 100.733 61.354 10.1475 5.51632 7.33704 2.51537 0.888939 0.723264 0.415052 0.802174 0.0771984 0.602839 0.0276111 0.0141391 0.00969749 0.0191261 0.00220583 0.000186682 0.000235994 0.000111776 6.71635e-07
threshold=1.0000000180025095e-35 1.0000000180025095e-35 0.1242453344166279 0.089587975293397917 0.4774476438760758 0.57846352458000194 0.55475828051567089 0.6157534420490266 0.43066605925560003 1.0000000180025095e-35 0.5263996720314027 0.34154324233531957 0.35524825751781469 0.34498615562915808 0.4026616513729096 0.3276966810226441 1.0000000180025095e-35 0.51238930225372326 0.41572935879230505 0.42681017518043524 0.41863144934177404 1.0000000180025095e-35
decision_type=2 2 2 2 2 2 2 2 2 2 2 2 2 2 2 2 2 2 2 2 2 2
left_child=1 3 6 4 5 -1 8 -8 -3 10 15 13 -13 -5 -4 16 -2 18 21 -20 -16 -11
right_child=9 2 14 11 -6 -7 7 -9 -10 17 -12 12 -14 -15 20 -17 -18 -19 19 -21 -22 -23
leaf_value=-0.15112903375495737 0.22424502905124377 -0.020087033804594003 0.2431504315517839 -0.23488631521368769 -0.024935265078368279 -0.22786620045478231 -0.17599470593011549 -0.099688110028195054 -0.081666879547455884 0.23391302362047137 0.18167846013152794 -0.18063718381791602 -0.23462655375500202 -0.22933352366526735 0.23469273108376737 0.23397803239032586 0.23408178333829621 0.23654304996926054 0.23534288106049961 0.23390814860630876 0.23381153224329629 0.23387517460256738
leaf_weight=144.97655494511127 18.310425251722336 10.757070228457453 8.43050768971443 49.204147785902023 9.2772336602210981 65.77278371155262 13.091264873743059 9.6161787062883359 19.447858810424805 226.32681034505367 17.095295965671539 9.8229251205921155 31.898869767785072 95.893037751317024 7.6331930160522488 15.414457172155378 11.805653840303423 12.504905641078947 7.7037848532199886 9.0584716200828534 16.583884656429291 18.410072237253189
leaf_count=800 120 49 50 326 51 405 74 50 95 1499 107 62 212 643 50 102 78 80 50 60 110 122
internal_value=0.000523157 -0.156953 0.0309947 -0.196479 -0.168747 -0.175078 -0.0957609 -0.14368 -0.0597361 0.230872 0.216875 -0.229139 -0.221915 -0.231217 0.236429 0.230091 0.228101 0.234071 0.233952 0.234568 0.234089 0.23391
internal_weight=829.035 492.406 85.56 406.846 220.027 210.749 52.9124 22.7074 30.2049 336.63 62.6258 186.819 41.7218 145.097 32.6476 45.5305 30.1161 274.004 261.499 16.7623 24.2171 244.737
internal_count=5195 2977 478 2499 1256 1205 268 124 144 2218 407 1243 274 969 210 300 198 1811 1731 110 160 1621
is_linear=0
shrinkage=0.190561


Tree=6
num_leaves=23
num_cat=0
split_feature=7 8 9 15 9 1 13 1 8 1 13 14 1 13 6 1 13 1 13 13 13 12
split_gain=642.014 78.556 47.262 12.2832 8.41332 11.5627 2.33195 0.643363 0.483021 0.850635 0.146035 0.0447558 0.143682 0.0455981 0.0113198 0.0208506 0.00689465 0.00108692 9.1532e-05 0.00011559 5.48783e-05 3.292e-07
threshold=1.0000000180025095e-35 1.0000000180025095e-35 0.1242453344166279 1.0000000180025095e-35 0.089587975293397917 0.40071678161621099 0.489100992679596 0.39415347576141363 1.0000000180025095e-35 0.34498615562915808 0.34154324233531957 1.0000000180025095e-35 0.4226807057857514 0.33992490172386175 1.0000000180025095e-35 0.3276966810226441 0.4026616513729096 0.51238930225372326 0.41572935879230505 0.42681017518043524 0.41863144934177404 1.0000000180025095e-35
decision_type=2 2 2 2 2 2 2 2 2 2 2 2 2 2 2 2 2 2 2 2 2 2
left_child=1 3 6 4 5 -1 7 -3 9 14 -6 13 -13 -5 15 -2 -4 18 21 -20 -18 -10
right_child=8 2 16 11 10 -7 -8 -9 17 -11 -12 12 -14 -15 -16 -17 20 -19 19 -21 -22 -23
leaf_value=-0.080460177982661404 0.21373653730066997 -0.081470876163501196 0.23182325577224058 -0.23003552493514987 -0.22562299278157369 -0.1860223453901691 -0.018234532169832229 -0.13270457797533583 0.22484248626567133 0.16792849001894183 -0.20223213199200676 -0.2095898036892713 -0.22423861895453326 -0.21693002922671159 0.22496867378160765 0.22487052887091422 0.22546137833372237 0.22686408448296561 0.22595212770067322 0.22486740716315337 0.22479429017179525 0.22487112123605321
leaf_weight=82.630749374628067 15.802650868892671 17.01957856118679 7.2734568864107159 35.106201380491257 35.868197023868561 69.26542030274868 14.774192571640013 18.657499879598618 15.765086099505423 15.867561399936674 13.281347915530203 35.968264788389206 75.044016420841217 13.290448710322378 12.825652554631231 9.9557551592588407 6.5408812612295177 10.731364816427229 6.604886054992674 7.7572453022003174 14.200530648231505 193.81629921495914
leaf_count=446 120 84 50 247 278 474 74 110 122 111 96 278 588 92 99 77 50 80 50 60 110 1499
internal_value=0.000755453 -0.144482 0.0283069 -0.182095 -0.150772 -0.128597 -0.0818995 -0.108264 0.221239 0.205069 -0.219302 -0.221601 -0.219492 -0.226437 0.220343 0.21804 0.226775 0.224991 0.224901 0.225366 0.225005 0.224869
internal_weight=728.047 438.921 78.4661 360.455 201.046 151.896 50.4513 35.6771 289.127 54.4516 49.1495 159.409 111.012 48.3967 38.5841 25.7584 28.0149 234.675 223.944 14.3621 20.7414 209.581
internal_count=5195 2977 478 2499 1294 920 268 194 2218 407 374 1205 866 339 296 197 210 1811 1731 110 160 1621
is_linear=0
shrinkage=0.190561


Tree=7
num_leaves=21
num_cat=0
split_feature=7 8 9 15 9 2 1 8 2 2 1 1 1 1 6 1 0 0 1 12
split_gain=503.033 64.3399 36.9547 12.9457 7.99214 11.0262 1.63894 0.571514 1.04288 0.389445 0.0359864 0.0303654 0.494714 0.013585 0.025172 0.000559758 0.000496029 2.81747e-05 3.87998e-06 1.8208e-07
threshold=1.0000000180025095e-35 1.0000000180025095e-35 0.1242453344166279 1.0000000180025095e-35 0.089587975293397917 0.57639136910438549 0.40342013537883764 1.0000000180025095e-35 0.5263996720314027 0.61462086439132702 1.0000000180025095e-35 0.34498615562915808 0.4226807057857514 0.3276966810226441 1.0000000180025095e-35 0.51238930225372326 1.0000000180025095e-35 1.0000000180025095e-35 0.33140207827091223 1.0000000180025095e-35
decision_type=2 2 2 2 2 2 2 2 2 2 2 2 2 2 2 2 2 2 2 2
left_child=1 3 6 4 5 -1 10 8 13 -8 -3 16 -13 14 -2 17 -5 19 -15 -9
right_child=7 2 -4 11 -6 -7 9 15 -10 -11 -12 12 -14 18 -16 -17 -18 -19 -20 -21
leaf_value=-0.065922269217644172 0.20485965876808934 -0.048425490924419778 0.21950319709416569 -0.21867565868180144 -0.21085917408279164 -0.17326985241086063 -0.15155791631233112 0.2179390585010692 0.15030223149743765 -0.091647495434175441 -0.034894091963204345 -0.16218475637556395 -0.21747496401496236 0.21796333913847768 0.21806107377230016 0.21952262115446977 -0.21760298538829151 0.21818699167456956 0.21818425601452004 0.21796204185910961
leaf_weight=75.041196748614311 13.453962244093418 21.44133286178112 24.345053635537624 24.838843263685703 41.505651280283928 64.707843124866486 7.1854217499494544 13.620341643691061 13.636258676648138 8.7238326221704465 10.698152303695677 6.4811322912573806 63.001733690500259 6.0452899336814863 8.5961889177560806 9.0279902666807157 42.337435528635979 22.556124657392502 5.5258479565382004 154.53409834951162
leaf_count=422 119 109 214 223 369 497 50 124 106 51 56 57 581 55 78 79 348 204 50 1406
internal_value=0.000775131 -0.133904 0.0282301 -0.170825 -0.137435 -0.115627 -0.0686831 0.213598 0.194753 -0.118706 -0.0439213 -0.215111 -0.212318 0.212781 0.210006 0.218056 -0.218 0.217987 0.218069 0.21796
internal_weight=637.304 390.308 72.3938 317.914 181.255 139.749 48.0487 246.996 47.2575 15.9093 32.1395 136.659 69.4829 33.6213 22.0502 199.739 67.1763 190.711 11.5711 168.154
internal_count=5198 2977 480 2497 1288 919 266 2221 408 101 165 1209 638 302 197 1813 571 1734 105 1530
is_linear=0
shrinkage=0.190561


Tree=8
num_leaves=24
num_cat=0
split_feature=10 8 9 15 9 1 13 1 8 6 1 13 15 15 1 1 1 13 1 13 13 13 11
split_gain=399.895 51.018 29.0236 13.9523 7.92829 8.09889 1.94629 0.362943 0.25585 0.297129 0.619826 0.234034 0.0710959 0.0873753 0.065606 0.0231193 0.00412994 0.00223665 0.000290294 2.80962e-05 3.38042e-05 1.42087e-05 8.90114e-08
threshold=1.0000000180025095e-35 1.0000000180025095e-35 0.1242453344166279 1.0000000180025095e-35 0.089587975293397917 0.40071678161621099 0.489100992679596 0.43372693657875067 1.0000000180025095e-35 1.0000000180025095e-35 0.33140207827091223 0.34154324233531957 0.14931329339742663 0.20707555860280993 0.4226807057857514 0.3276966810226441 0.34811218082904821 0.40184484422206884 0.51238930225372326 0.41572935879230505 0.42681017518043524 0.41812629997730261 1.0000000180025095e-35
decision_type=2 2 2 2 2 2 2 2 2 2 2 2 2 2 2 2 2 2 2 2 2 2 2
left_child=1 3 6 4 5 -1 7 -3 9 10 15 -6 14 -14 -5 -2 -11 -4 19 22 -21 -19 -10
right_child=8 2 17 12 11 -7 -8 -9 18 16 -12 -13 13 -15 -16 -17 -18 21 -20 20 -22 -23 -24
leaf_value=-0.06122421289858955 0.19719402116201837 -0.069551425253373156 0.21716235290421057 -0.20037953945560252 -0.21335345640557021 -0.15764337777630866 0.0014482515377080079 -0.11244964259331286 0.21259517553301202 0.21265173451953054 0.13405442780608187 -0.17872496150672146 -0.23799178156399262 -0.21254616230679391 -0.21226874858103023 0.21259672774533303 0.21872142090013702 0.21291314273379155 0.21381736420520994 0.2132600359102946 0.21258822075699343 0.21251248739429557 0.21257773844968872
leaf_weight=74.834656298160553 11.509201809763914 21.624720148742199 5.3478996753692654 36.385537922382355 25.577364668250084 54.8010378703475 13.928156077861784 10.708409205079077 138.79511892050505 9.4021313786506671 6.9197458624839774 9.8038601726293546 5.5232318565249434 43.455699667334557 31.397918879985809 5.1098786666989318 7.1791014671325675 4.6033562943339339 7.6406979113817206 5.2310003712773305 5.6655847504734993 10.651889182627199 11.512584954500197
leaf_count=439 119 125 50 350 274 480 72 69 1494 101 66 95 51 469 342 55 64 49 79 55 61 115 124
internal_value=0.000971962 -0.123964 0.0256806 -0.159474 -0.123805 -0.101984 -0.0581051 -0.0837589 0.209419 0.19574 0.181976 -0.203758 -0.209884 -0.215416 -0.205887 0.20193 0.21528 0.213809 0.21267 0.212615 0.212911 0.212633 0.212594
internal_weight=557.609 348.644 66.8644 281.779 165.017 129.636 46.2613 32.3331 208.965 40.1201 23.5388 35.3812 116.762 48.9789 67.7835 16.6191 16.5812 20.6031 168.845 161.204 10.8966 15.2552 150.308
internal_count=5198 2980 480 2500 1288 919 266 194 2218 405 240 369 1212 520 692 174 165 214 1813 1734 116 164 1618
is_linear=0
shrinkage=0.190561


Tree=9
num_leaves=23
num_cat=0
split_feature=7 8 9 15 9 2 13 8 1 1 1 13 2 13 1 13 1 9 13 13 13 12
split_gain=309.667 39.8646 22.9656 14.0564 7.76489 8.95261 1.39636 0.748514 1.26107 0.314955 0.294881 0.274306 0.0493242 0.107187 0.0194818 0.00117233 0.00015313 1.71415e-05 1.47742e-05 1.77655e-05 7.47885e-06 4.67645e-08
threshold=1.0000000180025095e-35 1.0000000180025095e-35 0.1242453344166279 1.0000000180025095e-35 0.089587975293397917 0.57639136910438549 0.489100992679596 1.0000000180025095e-35 0.35114340484142309 0.34498615562915808 0.43372693657875067 0.34154324233531957 0.58128637075424205 0.34069961309432989 0.3276966810226441 0.40184484422206884 0.51238930225372326 0.1242453344166279 0.41572935879230505 0.42681017518043524 0.41812629997730261 1.0000000180025095e-35
decision_type=2 2 2 2 2 2 2 2 2 2 2 2 2 2 2 2 2 2 2 2 2 2
left_child=1 3 6 4 5 -1 10 8 9 14 -3 -6 13 -5 -2 -4 18 -14 21 -20 -17 -9
right_child=7 2 15 12 11 -7 -8 16 -10 -11 -12 -13 17 -15 -16 20 -18 -19 19 -21 -22 -23
leaf_value=-0.044911359211778031 0.19720209023766805 -0.058618549348826238 0.21197482182932761 -0.19214517108473048 -0.2090158661197771 -0.1498251208411886 0.0011713643109218896 0.20836148189080586 0.079713166341303349 0.15485866664915349 -0.098448305049027615 -0.16865410443816467 -0.20813982374291989 -0.2096825635565456 0.20871906679661148 0.20862672338656366 0.20934241139862747 -0.20780181570501927 0.20890059084363044 0.20836976805386573 0.20830988861953226 0.20837525936135703
leaf_weight=69.720429554581642 15.943162195384508 20.855369016528133 4.5173409432172802 30.053064092993736 21.534448519349102 51.245577447116375 13.937727227807043 9.6884031146764737 4.2249393463134757 6.9034830182790747 9.9800285920500738 8.5391664579510671 39.817441798746586 21.861640736460686 8.0148667469620687 3.8750111684203139 6.4364942610263816 6.3120084255933753 4.4046021625399572 4.7679074257612228 8.9636067748069745 116.80455086380243
leaf_count=422 197 125 50 345 274 497 72 124 42 68 69 95 515 266 101 49 79 83 55 61 115 1494
internal_value=0.00118349 -0.11331 0.02325 -0.147373 -0.1109 -0.0893566 -0.0488843 0.20228 0.177354 0.190721 -0.0715096 -0.197555 -0.203559 -0.19953 0.201055 0.209335 0.208434 -0.208094 0.208391 0.208625 0.208406 0.208374
internal_weight=488.401 311.213 62.1291 249.084 151.04 120.966 44.7731 177.188 35.0865 30.8615 30.8354 30.0736 98.0442 51.9147 23.958 17.356 142.102 46.1295 135.665 9.17251 12.8386 126.493
internal_count=5198 2977 480 2497 1288 919 266 2221 408 366 194 369 1209 611 298 214 1813 598 1734 116 164 1618
is_linear=0
shrinkage=0.190561


Tree=10
num_leaves=21
num_cat=0
split_feature=10 8 15 1 2 1 12 2 8 1 15 1 15 1 6 1 1 1 6 11
split_gain=248.57 31.6011 14.8504 7.85463 6.64055 6.57712 3.38544 0.506481 0.355887 1.80086 0.108318 0.115815 0.0905631 0.0442376 0.0421954 0.00185835 8.1853e-05 7.36806e-07 1.07639e-06 2.90107e-08
threshold=1.0000000180025095e-35 1.0000000180025095e-35 1.0000000180025095e-35 0.46681340038776403 0.57846352458000194 0.3540854305028916 1.0000000180025095e-35 0.58167418837547313 1.0000000180025095e-35 0.3540854305028916 0.14931329339742663 0.4226807057857514 0.20707555860280993 0.3276966810226441 1.0000000180025095e-35 0.34498615562915808 0.51238930225372326 0.3276966810226441 1.0000000180025095e-35 1.0000000180025095e-35
decision_type=2 2 2 2 2 2 2 2 2 2 2 2 2 2 2 2 2 2 2 2
left_child=1 2 3 4 -1 6 -3 -7 9 13 11 -4 -12 14 -2 -15 17 18 -10 -19
right_child=8 5 10 -5 -6 7 -8 -9 16 -11 12 -13 -14 15 -16 -17 -18 19 -20 -21
leaf_value=-0.082364547187609521 0.18333713363609822 -0.05414740046849062 -0.18614486388122189 0.12401154659920594 -0.17847565326228398 -0.10851245231649127 0.093465135477196842 -0.045177456893259478 0.2050253310214212 0.056054380591980993 -0.23518832014623234 -0.20481825735648451 -0.20502421399005796 0.20529904058679016 0.20523787285732875 0.20995746556861375 0.20579627187734797 0.20502381727899618 0.20507948041735044 0.20500726378999326
leaf_weight=97.957112513482571 8.3373785018920952 6.8755196034908286 26.48095864802599 5.5188020765781394 35.589471913874149 7.2389382570982006 31.449377879500389 12.506491631269453 25.704129040241241 3.6325203627347937 4.0964185148477545 22.149129703640938 30.718354381620884 6.7236085012555105 5.1790151149034491 5.7854910269379616 5.4022628366947165 56.25550153106451 27.692167118191719 4.1265875026583663
leaf_count=827 119 39 350 47 414 49 299 93 392 38 51 342 469 101 78 69 79 858 421 63
internal_value=0.00136088 -0.104235 -0.136906 -0.0987712 -0.107978 0.0209505 0.0669833 -0.0683969 0.200423 0.181744 -0.200459 -0.19465 -0.208573 0.199287 0.191729 0.207454 0.205072 0.205037 0.205053 0.205023
internal_weight=429.419 280.581 222.51 139.065 133.547 58.0703 38.3249 19.7454 148.839 29.658 83.4449 48.6301 34.8148 26.0255 13.5164 12.5091 119.181 113.778 53.3963 60.3821
internal_count=5198 2980 2500 1288 1241 480 338 142 2218 405 1212 692 520 367 197 170 1813 1734 813 921
is_linear=0
shrinkage=0.190561


Tree=11
num_leaves=24
num_cat=0
split_feature=10 8 9 9 0 2 13 8 2 1 2 1 13 1 6 1 13 1 9 13 13 13 11
split_gain=195.615 24.7491 16.9972 14.6054 7.52555 7.03377 0.571373 0.422065 2.16623 0.351731 0.105327 0.528306 0.0849919 0.0501269 0.0489994 0.00129343 0.000478242 4.421e-05 7.04952e-06 4.34626e-06 5.25533e-06 3.05377e-06 1.31359e-08
threshold=1.0000000180025095e-35 1.0000000180025095e-35 0.1242453344166279 0.089587975293397917 1.0000000180025095e-35 0.57639136910438549 0.489100992679596 1.0000000180025095e-35 0.5347418785095216 0.33497501909732824 0.58128637075424205 0.34498615562915808 0.33992490172386175 0.3276966810226441 1.0000000180025095e-35 0.34498615562915808 0.40184484422206884 0.51238930225372326 0.1242453344166279 0.41572935879230505 0.42681017518043524 0.41812629997730261 1.0000000180025095e-35
decision_type=2 2 2 2 2 2 2 2 2 2 2 2 2 2 2 2 2 2 2 2 2 2 2
left_child=1 3 6 4 5 -1 9 8 13 -3 11 -5 -6 14 -2 -15 -4 19 -12 22 -21 -18 -9
right_child=7 2 16 10 12 -7 -8 17 -10 -11 18 -13 -14 15 -16 -17 21 -19 -20 20 -22 -23 -24
leaf_value=-0.026535046079497946 0.17681234886551231 -0.090456957880277911 0.20634290670744126 -0.19403101377690288 -0.19439831556366172 -0.12743948950809023 -0.0097905484140440868 0.20234318946056831 0.023676209849054507 -0.043395342264749955 -0.20218728304281608 -0.1134798482068802 -0.16594562050824738 0.20256406190168197 0.20251464839515509 0.20671236327696085 0.2039165569826544 0.20296338301770536 -0.20192789590049653 0.20268372967876133 0.20233909819046997 0.20368638890931567 0.20233447063203297
leaf_weight=64.75784981995821 7.1204709708690697 7.9649429321289089 3.5126245319843283 36.44227035716176 17.123306915163997 40.949480667710304 14.290286511182783 81.928098674863577 3.0307625234127036 20.897770017385483 27.906582001596689 3.2177897207438937 4.9043231047689906 5.6246048696339113 4.3322716131806374 5.3025567233562469 2.9985497742891294 4.5210699923336497 4.4054276868700972 3.0928508564829817 3.3440971039235592 6.9329703412950039 6.7954734079539767
leaf_count=427 119 43 50 598 261 497 72 1494 33 151 515 43 76 101 78 74 49 79 83 55 61 115 124
internal_value=0.00144422 -0.0938978 0.0173357 -0.125421 -0.0867384 -0.065624 -0.0409534 0.196792 0.174869 -0.0563824 -0.194076 -0.187496 -0.188063 0.195344 0.186535 0.204577 0.204432 0.202381 -0.202152 0.202353 0.202505 0.203756 0.202343
internal_weight=381.396 256.304 56.5971 199.707 127.735 105.707 43.153 125.092 25.4107 28.8627 71.9721 39.6601 22.0276 22.3799 11.4527 10.9272 13.4441 99.6816 32.312 95.1605 6.43695 9.93152 88.7236
internal_count=5198 2980 480 2500 1261 924 266 2218 405 194 1239 641 337 372 197 175 214 1813 598 1734 116 164 1618
is_linear=0
shrinkage=0.190561


Tree=12
num_leaves=22
num_cat=0
split_feature=10 15 9 9 1 8 8 2 15 1 13 1 6 15 13 13 1 1 13 13 11
split_gain=154.388 19.6377 18.9152 11.2498 7.47319 6.80369 0.495076 2.08809 0.138276 0.174722 0.0949934 0.0548618 0.0567548 0.0526561 0.0239342 0.0459881 0.000699202 2.40782e-05 2.36215e-06 2.85615e-06 7.15724e-09
threshold=1.0000000180025095e-35 1.0000000180025095e-35 0.1242453344166279 0.089587975293397917 0.4774476438760758 1.0000000180025095e-35 1.0000000180025095e-35 0.5347418785095216 0.14931329339742663 0.4226807057857514 0.42442880570888525 0.3276966810226441 1.0000000180025095e-35 0.20707555860280993 0.40689902007579809 0.42113861441612249 0.34498615562915808 0.51238930225372326 0.41572935879230505 0.42681017518043524 1.0000000180025095e-35
decision_type=2 2 2 2 2 2 2 2 2 2 2 2 2 2 2 2 2 2 2 2 2
left_child=1 2 3 4 -1 8 7 11 9 -3 -5 12 -2 -10 -4 -16 -13 18 20 -20 -8
right_child=6 5 14 10 -6 -7 17 -9 13 -11 -12 16 -14 -15 15 -17 -18 -19 19 -21 -22
leaf_value=-0.0593616472734479 0.1701856065659928 -0.1728598488702538 0.16433037796823838 -0.19240051082893922 0.12990500520767079 0.023196500686743012 0.20018487419464312 0.019572760310246344 -0.22706764638555979 -0.20005124026462431 -0.23077549801911659 0.20036335294411178 0.20032323673320648 -0.20030375994968366 0.20138405931336242 0.17105193213358774 0.203698875273056 0.20068577211406582 0.20045965187084322 0.20018155527694489 0.20017782916376059
leaf_weight=126.34542614966631 6.0920804627239757 19.295293133705854 4.5144534297287446 18.563213229179386 8.0589805841445905 5.8195888176560393 68.370858781039715 2.9740829318761817 3.0450696945190456 15.454424306750296 2.6806857883930197 4.6947055719792825 3.615887425839901 21.639346439391375 2.7965579070150852 5.1721626855432987 4.4409240856766701 3.7748439759016028 2.5817749276757231 2.7907156608998775 5.6709363833069792
leaf_count=1067 119 350 71 346 64 39 1494 33 51 342 24 101 78 469 55 102 74 79 55 61 124
internal_value=0.00162175 -0.0847165 -0.0502799 -0.0683809 -0.0480131 -0.173445 0.193515 0.167965 -0.1927 -0.184953 -0.197243 0.191385 0.181411 -0.203605 0.175416 0.181697 0.201985 0.200216 0.200193 0.200315 0.200184
internal_weight=338.392 233.385 168.131 155.648 134.404 65.2537 105.007 21.8177 59.4341 34.7497 21.2439 18.8436 9.70797 24.6844 12.4832 7.96872 9.13563 83.1891 79.4143 5.37249 74.0418
internal_count=5198 2980 1729 1501 1131 1251 2218 405 1212 692 370 372 197 520 228 157 175 1813 1734 116 1618
is_linear=0
shrinkage=0.190561


Tree=13
num_leaves=20
num_cat=0
split_feature=10 15 9 9 12 1 13 8 2 12 8 13 13 13 1 1 13 13 12
split_gain=121.797 17.4025 13.9334 10.0776 9.73067 6.07719 1.5995 0.575483 2.00088 0.340342 0.0934209 0.0699682 0.0476165 0.06709 0.000281539 1.32013e-05 1.29328e-06 1.56326e-06 3.91672e-09
threshold=1.0000000180025095e-35 1.0000000180025095e-35 0.1242453344166279 0.089587975293397917 1.0000000180025095e-35 0.40342013537883764 0.51710885763168346 1.0000000180025095e-35 0.5347418785095216 1.0000000180025095e-35 1.0000000180025095e-35 0.34347636997699743 0.40689902007579809 0.42113861441612249 0.34498615562915808 0.51238930225372326 0.41572935879230505 0.42681017518043524 1.0000000180025095e-35
decision_type=2 2 2 2 2 2 2 2 2 2 2 2 2 2 2 2 2 2 2
left_child=1 2 3 5 6 -1 10 8 9 -2 -3 -5 -4 -14 -11 16 18 -18 -9
right_child=7 4 12 11 -6 -7 -8 15 -10 14 -12 -13 13 -15 -16 -17 17 -19 -20
leaf_value=-0.010646450223133189 0.12179077228543903 -0.19490510671928607 0.14722876428534981 -0.18439705070263923 0.14295130639193096 -0.097357174477351038 -0.07229451009881574 0.19843319091808223 0.016122909521568533 0.19893769118932886 -0.22979672734589665 -0.20967724818750477 0.19940995190361951 0.15965920201352823 0.20098615179959498 0.19884517857157449 0.19866161874101645 0.19843621512152235 0.19843890093578478
leaf_weight=85.572999760508537 2.4197437986731538 45.449370093643665 4.1216079443693143 11.970730077475311 3.4502207674086085 44.674225881695747 4.0439894013106814 4.7241310849785796 2.9278041869401923 10.24466725066304 2.9685760289430609 5.9525791592895976 2.3319564536213875 4.5504713617265224 3.1966523863375196 3.1459098123013964 2.1512252464890471 2.3247919827699661 56.956161476671696
leaf_count=566 52 1121 71 274 31 565 77 124 33 255 22 96 55 102 65 79 55 61 1494
internal_value=0.00171272 -0.0755842 -0.0434588 -0.0588234 -0.167041 -0.0403878 -0.187428 0.190444 0.160863 0.187581 -0.197044 -0.192793 0.163427 0.173128 0.199425 0.198464 0.198446 0.198545 0.198438
internal_weight=303.178 215.087 159.175 148.171 55.9122 130.247 52.4619 88.0911 18.7889 15.8611 48.4179 17.9233 11.004 6.88243 13.4413 69.3022 66.1563 4.47602 61.6803
internal_count=5198 2980 1729 1501 1251 1131 1220 2218 405 372 1143 370 228 157 320 1813 1734 116 1618
is_linear=0
shrinkage=0.190561


Tree=14
num_leaves=18
num_cat=0
split_feature=10 15 2 2 12 2 8 13 8 2 12 13 2 5 13 13 11
split_gain=99.8338 14.1196 6.26946 10.2762 5.64117 4.21334 3.26941 1.73397 0.675068 1.89215 0.444136 0.208777 0.000155739 6.26279e-06 6.22891e-07 8.38975e-07 2.20618e-09
threshold=1.0000000180025095e-35 1.0000000180025095e-35 0.62830767035484325 0.58476847410202037 1.0000000180025095e-35 0.58879092335701 1.0000000180025095e-35 0.61462414264678966 1.0000000180025095e-35 0.5347418785095216 1.0000000180025095e-35 0.51710885763168346 0.5263996720314027 0.17917595058679583 0.41572935879230505 0.42681017518043524 1.0000000180025095e-35
decision_type=2 2 2 2 2 2 2 2 2 2 2 2 2 2 2 2 2
left_child=1 2 3 6 7 -5 -1 11 9 10 -2 -3 -12 14 16 -16 -10
right_child=8 4 -4 5 -6 -7 -8 -9 13 -11 12 -13 -14 -15 15 -17 -18
leaf_value=-0.048151845628961402 0.097602825647799443 -0.1900288808307232 0.11622520575990149 -0.20356094695244323 0.068323349343321474 -0.045855831220383912 0.021768195211891165 0.0052816036684921429 0.19702093412737545 0.013240961966646184 0.19742942210269543 -0.12946628156033152 0.19908795399988941 0.19730886936499567 0.19720211286804434 0.19701878122260741 0.19701623472462129
leaf_weight=80.953777987509966 1.8723925836384303 41.084338434040546 8.464870944619177 19.79078018292785 3.6050158590078345 8.9265646152198297 34.691672492772341 1.7732167653739441 47.188800603151321 2.8900760337710372 8.5618168860673887 2.1765142455697051 2.7056991644203672 2.9979991056025019 1.659665443003177 1.9972926937043665 3.9297270551323882
leaf_count=854 45 1154 77 337 30 98 376 37 1488 33 256 40 66 91 51 63 124
internal_value=-0.00216727 -0.0716265 -0.0431665 -0.0525126 -0.16105 -0.15454 -0.027177 -0.179412 0.187441 0.152841 0.183546 -0.186982 0.197828 0.197041 0.197026 0.197102 0.197021
internal_weight=275.27 201.467 152.828 144.363 48.6391 28.7173 115.645 45.0341 73.8035 16.03 13.1399 43.2609 11.2675 57.7735 54.7755 3.65696 51.1185
internal_count=5220 3003 1742 1665 1261 435 1230 1231 2217 400 367 1194 322 1817 1726 114 1612
is_linear=0
shrinkage=0.190561


Tree=15
num_leaves=20
num_cat=0
split_feature=10 15 9 9 12 2 13 2 9 2 13 13 13 13 13 13 2 12 2
split_gain=78.5696 12.3669 9.86191 7.33887 4.85335 3.95962 1.81756 0.616851 0.819866 4.5255 0.403332 0.314638 0.422462 0.223823 0.0402882 0.0436704 0.00865234 0.000110923 1.00695e-10
threshold=1.0000000180025095e-35 1.0000000180025095e-35 0.1242453344166279 0.089587975293397917 1.0000000180025095e-35 0.62830767035484325 0.61578857898712169 0.55949765443801891 0.1242453344166279 0.63663998246192943 0.34154324233531957 0.41572935879230505 0.42589963972568518 0.51710885763168346 0.40689902007579809 0.43754601478576666 0.5347418785095216 1.0000000180025095e-35 0.64349642395973217
decision_type=2 2 2 2 2 2 2 2 2 2 2 2 2 2 2 2 2 2 2
left_child=1 2 3 5 6 -1 13 11 9 -9 -5 16 -13 -3 -4 -16 17 -2 -11
right_child=7 4 14 10 -6 -7 -8 8 -10 18 -12 12 -14 -15 15 -17 -18 -19 -20
leaf_value=-0.044272501272383205 0.19712109273589951 -0.18679833441379023 0.1336453953276498 -0.19835804177433877 0.053005561424067385 0.08575657565890174 0.022185797604703964 -0.20005335250386777 0.19586676781917886 0.19586874733467199 -0.13238080639565161 0.053391979517027711 0.19587095116561512 -0.12288109334987363 0.16960409371306909 0.1338625949220964 0.20539105050050985 0.19601715338384681 0.19586676781917881
leaf_weight=113.54680182039738 3.5977856963872901 34.486943876370788 3.8286191411316377 9.8651856705546361 3.7442261241376391 9.1928549259901029 1.6360001899301995 1.430351734161375 5.2973116133362055 1.5274910666048529 5.1062203347682944 1.3355326391756528 1.7406539786607025 2.111264079809188 4.0943055339157581 1.7815631255507467 3.9724889751523724 40.644111877307296 2.3982853572815657
leaf_count=1056 117 1154 73 280 30 77 33 43 201 58 100 49 66 44 111 45 83 1509 91
internal_value=-0.00186602 -0.0627985 -0.0368135 -0.0498976 -0.15405 -0.0345337 -0.174327 0.184435 0.14271 0.090137 -0.175856 0.193102 0.134013 -0.183111 0.148856 0.158767 0.196872 0.196107 0.195868
internal_weight=251.338 189.394 147.416 137.711 41.9784 122.74 38.2342 61.944 10.6534 5.35613 14.9714 51.2906 3.07619 36.5982 9.70449 5.87587 48.2144 44.2419 3.92578
internal_count=5220 3003 1742 1513 1261 1133 1231 2217 393 192 380 1824 115 1198 229 156 1709 1626 149
is_linear=0
shrinkage=0.190561


Tree=16
num_leaves=20
num_cat=0
split_feature=10 15 9 9 8 1 8 2 12 12 13 2 13 13 1 1 13 13 12
split_gain=61.9105 10.6001 7.09356 6.3398 4.56388 4.48783 0.951602 2.06369 0.94347 0.575451 0.459337 0.103256 0.0546278 0.0508001 0.000160814 4.82066e-05 9.73763e-06 1.10356e-05 3.53784e-08
threshold=1.0000000180025095e-35 1.0000000180025095e-35 0.1242453344166279 0.089587975293397917 1.0000000180025095e-35 0.40342013537883764 1.0000000180025095e-35 0.5347418785095216 1.0000000180025095e-35 1.0000000180025095e-35 0.34154324233531957 0.58128637075424205 0.40689902007579809 0.43754601478576666 0.51238930225372326 0.34498615562915808 0.41572935879230505 0.42681017518043524 1.0000000180025095e-35
decision_type=2 2 2 2 2 2 2 2 2 2 2 2 2 2 2 2 2 2 2
left_child=1 2 3 5 8 -1 7 9 11 -2 -5 -3 -4 -14 16 -11 18 -18 -8
right_child=6 4 12 10 -6 -7 14 -9 -10 15 -12 -13 13 -15 -16 -17 17 -19 -20
leaf_value=-0.003508611588722785 0.063978308555028382 -0.17223833625185594 0.11609455560219439 -0.19697999949405048 0.017919202168959932 -0.082570302850048266 0.19489886509800367 -0.020051860822893352 -0.0420007621405213 0.19519578033654045 -0.12153945781381703 -0.19493475778322522 0.1593421810254062 0.11884479397168615 0.19660103098739554 0.19630484224692762 0.19569450512178463 0.19492067547404435 0.19492156516242334
leaf_weight=81.60759999230504 1.4309057742357234 15.879471797496086 3.5939560085535032 8.2049376592040044 5.2376259826123706 38.311624273657799 2.6983813662081948 2.5037078037858 1.8408418521285046 5.9098769966512918 4.5594902485609046 13.439460242167113 3.5810321383178234 1.6399070955812929 2.2589538507163516 1.8746296558529136 1.3015136774629348 1.3775624167174099 32.783628050237894
leaf_count=570 45 587 73 280 42 563 124 33 19 256 100 613 111 45 80 66 51 63 1499
internal_value=-0.00143148 -0.0549517 -0.0313597 -0.0423571 -0.146668 -0.0287671 0.181177 0.133365 -0.174333 0.175047 -0.170032 -0.182642 0.134175 0.146622 0.195039 0.195463 0.194946 0.195297 0.19492
internal_weight=230.035 177.896 141.499 132.684 36.3974 119.919 52.1392 11.7191 31.1598 9.21541 12.7644 29.3189 8.8149 5.22094 40.42 7.78451 38.1611 2.67908 35.482
internal_count=5220 3003 1742 1513 1261 1133 2217 400 1219 367 380 1200 229 156 1817 322 1737 114 1623
is_linear=0
shrinkage=0.190561


Tree=17
num_leaves=20
num_cat=0
split_feature=10 15 9 9 1 8 8 8 2 12 12 13 2 13 1 1 13 13 11
split_gain=48.8048 8.91918 5.04919 5.38067 4.52095 4.36472 4.10755 1.05352 1.83857 0.960505 0.595317 0.511793 0.123156 0.000103503 8.96921e-05 2.67692e-05 5.41872e-06 6.13744e-06 1.9693e-08
threshold=1.0000000180025095e-35 1.0000000180025095e-35 0.1242453344166279 0.089587975293397917 0.4774476438760758 1.0000000180025095e-35 1.0000000180025095e-35 1.0000000180025095e-35 0.5347418785095216 1.0000000180025095e-35 1.0000000180025095e-35 0.34154324233531957 0.58128637075424205 0.40164235234260565 0.51238930225372326 0.34498615562915808 0.41572935879230505 0.42681017518043524 1.0000000180025095e-35
decision_type=2 2 2 2 2 2 2 2 2 2 2 2 2 2 2 2 2 2 2
left_child=1 2 3 4 -1 -4 9 8 10 12 -2 -5 -3 -7 16 -12 18 -18 -9
right_child=7 6 5 11 -6 13 -8 14 -10 -11 15 -13 -14 -15 -16 -17 17 -19 -20
leaf_value=-0.034912364636330989 0.055358943633121632 -0.16709166886457966 -0.13260290009822906 -0.19585013580080068 0.10412162394888408 0.19780614858664433 0.014323475233778223 0.19414931138041638 -0.015931820236697182 -0.034962695226655995 0.19437404281510395 -0.11066132264831821 -0.19416012238969596 0.19606842704482175 0.19552559063299144 0.1952810785610091 0.19478211511853491 0.19414857794553536 0.1941307153298697
leaf_weight=108.03775838017464 1.3478025570511798 13.490055581554779 1.9137290865182857 6.8166043162345868 9.2174839675426465 1.7223130017518995 5.2967744022607794 27.192661974579103 2.5456667616963387 1.7952306643128384 4.9030983131378889 4.1020174380391836 11.147596206516026 4.4884122554212809 1.8762699663639058 1.5566933862864969 1.0802364517003291 1.1426302101463077 2.2381539139896622
leaf_count=1062 45 587 15 280 71 49 42 1499 33 19 256 100 613 165 80 66 51 63 124
internal_value=-0.00111082 -0.0478463 -0.026663 -0.0358972 -0.0239828 0.119018 -0.138841 0.177838 0.124703 -0.169534 0.170557 -0.163846 -0.179339 0.19655 0.194245 0.194593 0.19417 0.194456 0.194148
internal_weight=211.911 168.028 136.298 128.174 117.255 8.12445 31.7297 43.8832 10.3533 26.4329 7.80759 10.9186 24.6377 6.21073 33.53 6.45979 31.6537 2.22287 29.4308
internal_count=5220 3003 1742 1513 1133 229 1261 2217 400 1219 367 380 1200 214 1817 322 1737 114 1623
is_linear=0
shrinkage=0.190561


Tree=18
num_leaves=19
num_cat=0
split_feature=10 15 12 2 2 13 12 13 13 2 2 13 13 13 2 12 2 2
split_gain=38.4503 7.38513 3.76856 3.0339 11.3423 3.94992 3.40642 2.10264 1.89075 0.964613 1.27487 0.510165 0.597428 0.29627 0.00756684 0.000122792 6.26334e-05 5.10113e-10
threshold=1.0000000180025095e-35 1.0000000180025095e-35 1.0000000180025095e-35 0.58476847410202037 0.58879092335701 0.53462135791778576 1.0000000180025095e-35 0.61578857898712169 -1.0000000180025095e-35 0.55949765443801891 0.63146233558654796 0.41572935879230505 0.42589963972568518 0.35053814947605139 0.5347418785095216 1.0000000180025095e-35 0.63663998246192943 0.64164182543754589
decision_type=2 2 2 2 2 2 2 2 2 2 2 2 2 2 2 2 2 2
left_child=1 3 7 5 -5 8 -6 13 -1 11 -11 14 -13 -3 15 -2 -12 -18
right_child=9 2 -4 4 6 -7 -8 -9 -10 10 16 12 -14 -15 -16 -17 17 -19
leaf_value=0.039425583702313818 0.19504716883111184 -0.18383189327673621 0.045797006496061964 -0.19964313215783852 0.11680082978259487 -0.099265873126516316 -0.051644461132597214 0.075065159530408099 -0.017317503963302831 0.025970524931583538 0.19535645881730435 -0.021998462559160919 0.19351918966316753 -0.13192627556462494 0.2038035897156944 0.19359989685107659 0.1935109908110797 0.19351711695172172
leaf_weight=40.070354491472244 2.343843702226887 17.550215370953094 3.8000204749405375 14.302835032343866 8.3848954103887081 14.206613451242445 9.0813433341681957 1.3234981279820193 45.581680187955499 3.361053845845162 0.95778286457061801 0.8815481662750233 0.99343538470566273 5.1694770362228146 3.0305895721539846 23.204758228734136 0.73464098852127824 1.5042334208264945
leaf_count=330 117 1004 30 337 80 91 95 33 809 204 40 49 66 194 83 1509 49 100
internal_value=-0.00077383 -0.0413856 -0.130549 -0.0225249 -0.0738171 -0.00620673 0.0292199 -0.15842 0.00922846 0.174208 0.107912 0.188483 0.0921907 -0.172022 0.194801 0.193733 0.194067 0.193515
internal_weight=196.483 159.471 27.8432 131.628 31.7691 99.8586 17.4662 24.0432 85.652 37.0119 6.55771 30.4542 1.87498 22.7197 28.5792 25.5486 3.19666 2.23887
internal_count=5220 3003 1261 1742 512 1230 175 1231 1139 2217 393 1824 115 1198 1709 1626 189 149
is_linear=0
shrinkage=0.190561


Tree=19
num_leaves=21
num_cat=0
split_feature=10 15 9 9 8 8 1 8 1 12 15 13 13 12 13 1 13 13 9 1
split_gain=30.258 6.02904 3.83117 4.5997 3.70232 3.47569 3.35941 1.4305 1.72832 0.862261 0.854385 1.05775 0.573333 0.142419 6.02803e-05 2.29178e-05 1.18729e-05 1.50694e-05 1.3941e-05 8.39494e-06
threshold=1.0000000180025095e-35 1.0000000180025095e-35 0.1242453344166279 0.089587975293397917 1.0000000180025095e-35 1.0000000180025095e-35 0.40342013537883764 1.0000000180025095e-35 0.3540854305028916 1.0000000180025095e-35 0.14931329339742663 0.33992490172386175 0.34154324233531957 1.0000000180025095e-35 0.40164235234260565 0.51238930225372326 0.41572935879230505 0.42589963972568518 0.1242453344166279 0.34498615562915808
decision_type=2 2 2 2 2 2 2 2 2 2 2 2 2 2 2 2 2 2 2 2
left_child=1 2 3 6 10 -4 -1 8 9 -2 11 -3 -5 -12 -7 16 18 -18 -9 -11
right_child=7 4 5 12 -6 14 -8 15 -10 19 13 -13 -14 -15 -16 -17 17 -19 -20 -21
leaf_value=0.0050778646359381516 -0.0076421132134270719 -0.15128147433788569 -0.1162094314921797 -0.19484819545078291 0.02290744737797578 0.19660994729791106 -0.066591918418718019 0.19299371247602098 -0.037797447161342777 0.1931480312477738 -0.19361442788954267 0.0057907292392166167 -0.097650427114845784 -0.26032041089625774 0.19516710247230007 0.19392308621851856 0.19413686259221175 0.19299869872067665 0.19344127767271338 0.19376034373482953
leaf_weight=79.43686069175601 0.93959346786141651 8.9740628954023176 1.7257436364889134 5.5651767924427968 5.084025587886571 1.4554457925260065 33.878600936383009 17.698202371597301 2.3461105599999428 3.3687751907855272 7.2897717896848899 1.8836631653830398 3.6485319603234529 1.3827239014208315 3.7884773965924978 1.2912134323269118 0.86783874034881481 0.82306583505123854 2.9482524488121262 1.0717777796089647
leaf_count=570 41 614 15 280 42 49 563 1422 37 256 505 87 100 13 165 80 48 66 201 66
internal_value=-0.000775091 -0.0354929 -0.0190606 -0.0268778 -0.121945 0.118369 -0.0163497 0.169867 0.0986872 0.158204 -0.159653 -0.124032 -0.156359 -0.20425 0.195568 0.193143 0.193097 0.193583 0.193058 0.193296
internal_weight=185.468 154.113 129.499 122.529 24.6142 6.96967 113.315 31.3548 7.72626 5.38015 19.5302 10.8577 9.21371 8.6725 5.24392 23.6286 22.3374 1.6909 20.6465 4.44055
internal_count=5220 3003 1742 1513 1261 229 1133 2217 400 363 1219 701 380 518 214 1817 1737 114 1623 322
is_linear=0
shrinkage=0.190561


Tree=20
num_leaves=21
num_cat=0
split_feature=10 15 12 9 9 13 8 13 8 11 6 1 13 9 13 1 13 13 9 1
split_gain=23.8139 4.79225 3.40195 2.94892 3.76445 3.24388 2.84257 1.94155 1.51444 1.79642 3.67814 1.28211 0.611191 0.358742 3.34727e-05 1.28526e-05 6.64449e-06 8.42687e-06 7.80547e-06 4.98307e-06
threshold=1.0000000180025095e-35 1.0000000180025095e-35 1.0000000180025095e-35 0.1242453344166279 0.089587975293397917 0.3960947990417481 1.0000000180025095e-35 0.61578857898712169 1.0000000180025095e-35 1.0000000180025095e-35 1.0000000180025095e-35 0.3276966810226441 0.34154324233531957 0.089587975293397917 0.40164235234260565 0.51238930225372326 0.41572935879230505 0.42589963972568518 0.1242453344166279 0.34811218082904821
decision_type=2 2 2 2 2 2 2 2 2 2 2 2 2 2 2 2 2 2 2 2
left_child=1 3 7 4 5 -1 -5 13 9 10 11 -2 -6 -3 -8 16 18 -18 -10 -12
right_child=8 2 -4 6 12 -7 14 -9 15 -11 19 -13 -14 -15 -16 -17 17 -19 -20 -21
leaf_value=0.0028286390363035595 -0.0074679538971188933 -0.19893628357906423 0.054230876788306633 -0.10301634908292329 -0.19409784607851596 -0.077979281834413175 0.19553046408121899 0.079375073035268182 0.19256674236950203 0.20155561788057014 0.19258709869933788 -0.30818196959986582 -0.087109821349179953 -0.14176237217937623 0.19435055013722946 0.19333122983136342 0.19350589489372141 0.19257084133715707 0.19293469097997468 0.19319613477705666
leaf_weight=89.193853415548801 0.95039794780314268 6.3542001908645132 3.7030589692294589 1.5904274880886067 4.6156215593218795 22.613029681146145 1.2089045029133556 1.2901835236698378 14.656720314174899 2.9957777559757233 1.1033733906224368 1.1234638057649133 3.3436077050864697 10.689500272274016 3.1430165972560644 1.0701269432902325 0.7193729281425465 0.6816226439550519 2.4424846759065977 0.87448333390057076
leaf_count=984 78 344 30 15 280 149 49 33 1422 74 106 77 100 854 165 80 48 66 201 65
internal_value=-0.000505335 -0.0303971 -0.112367 -0.0160276 -0.0225289 -0.0135148 0.115002 -0.146016 0.165412 0.0896672 0.00693865 -0.170372 -0.149153 -0.163078 0.194678 0.192689 0.192652 0.193051 0.192619 0.192856
internal_weight=174.363 147.745 22.0369 125.708 119.766 111.807 5.94235 18.3339 26.6178 7.0475 4.05172 2.07386 7.95923 17.0437 4.35192 19.5703 18.5002 1.401 17.0992 1.97786
internal_count=5220 3003 1261 1742 1513 1133 229 1231 2217 400 326 155 380 1198 214 1817 1737 114 1623 171
is_linear=0
shrinkage=0.190561


Tree=21
num_leaves=18
num_cat=0
split_feature=7 15 15 13 13 13 9 9 12 8 11 13 13 5 13 13 13
split_gain=15.1822 14.7331 4.29771 1.94128 6.87544 6.77405 3.01618 1.80027 1.09167 0.370351 0.431328 0.677692 0.000123405 5.94493e-06 3.83977e-06 3.82387e-06 5.2249e-07
threshold=1.0000000180025095e-35 0.14931329339742663 0.20707555860280993 1.0000000180025095e-35 -1.0000000180025095e-35 0.33793374896049505 0.1242453344166279 0.089587975293397917 1.0000000180025095e-35 1.0000000180025095e-35 1.0000000180025095e-35 -1.0000000180025095e-35 0.61462414264678966 0.17917595058679583 0.41572935879230505 0.4996743798255921 -1.0000000180025095e-35
decision_type=2 2 2 2 2 2 2 2 2 2 2 2 2 2 2 2 2
left_child=2 9 3 4 7 -5 -7 -1 -6 10 11 -2 15 14 -11 16 -4
right_child=1 -3 12 5 8 6 -8 -9 -10 13 -12 -13 -14 -15 -16 -17 -18
leaf_value=0.004198257514900809 0.032553622057688546 -0.63359664718480191 -0.19238546089095254 0.28123474018401101 -0.18461669761489663 -0.016721611506584882 0.14570019366735612 -0.10588254031471146 -0.073582005068084128 0.19226061816220869 0.1994645171003519 0.19262777289300567 -0.19552785234497488 0.1927733473852645 0.19262070409763024 -0.19298449913744806 -0.19253418862911495
leaf_weight=70.025581132620573 2.310946275480092 0.84463286027312179 2.4934780243784189 3.3592958496883503 9.6485374886542541 39.238719805143774 4.643085839226841 5.845211509615182 4.8226403854787341 14.100632720626889 2.5608999766409397 1.6433981033042133 0.55239713191986073 0.97532887943089086 1.1641624234616763 0.52670219354331482 1.3075478384271257
leaf_count=854 168 5 267 52 510 448 233 405 35 1615 77 159 23 91 114 43 129
internal_value=0.00634484 0.147911 -0.0171066 -0.010873 -0.0272416 0.0204296 0.000464062 -0.00428255 -0.147613 0.176919 0.138537 0.0990793 -0.192846 0.192317 0.192288 -0.192503 -0.192437
internal_weight=166.063 23.6 142.463 137.583 90.342 47.2411 43.8818 75.8708 14.4712 22.7554 6.51524 3.95434 4.88013 16.2401 15.2648 4.32773 3.80103
internal_count=5228 2229 2999 2537 1804 733 681 1259 545 2224 404 327 462 1820 1729 439 396
is_linear=0
shrinkage=0.190561


Tree=22
num_leaves=22
num_cat=0
split_feature=10 2 2 2 2 13 13 13 2 2 2 8 2 12 12 9 2 5 13 13 9
split_gain=13.6202 3.926 10.7145 15.2021 4.2846 2.57272 6.17694 5.87948 2.85502 2.55722 1.84015 1.65863 2.12825 1.11624 0.956443 0.00167571 1.0243e-05 3.34196e-06 2.15806e-06 2.66354e-06 2.54578e-06
threshold=1.0000000180025095e-35 0.58476847410202037 0.58879092335701 0.60073012113571178 0.62830767035484325 -1.0000000180025095e-35 1.0000000180025095e-35 0.3966000378131867 0.53466320037841808 0.52314683794975292 0.57476851344108593 1.0000000180025095e-35 0.5347418785095216 1.0000000180025095e-35 1.0000000180025095e-35 0.089587975293397917 0.51871249079704296 0.17917595058679583 0.41572935879230505 0.42589963972568518 0.1242453344166279
decision_type=2 2 2 2 2 2 2 2 2 2 2 2 2 2 2 2 2 2 2 2 2
left_child=1 5 15 -4 -5 8 13 -8 9 -1 -10 12 14 -7 -2 -3 -16 18 20 -20 -13
right_child=11 2 3 4 -6 6 7 -9 10 -11 -12 17 -14 -15 16 -17 -18 -19 19 -21 -22
leaf_value=0.042888327257711641 -0.036606030019701898 -0.19756026196497689 0.45085574173552129 -0.17941127881502941 0.021198285438713209 -0.17950117843755195 0.09566023885730969 -0.041476535020910067 -0.086633088211056336 0.17883614294719602 0.037681404423287435 0.19192608838683994 -0.098969379076323874 -0.062860705759777424 0.19226581545968724 -0.1924370329992503 0.19294596798769023 0.19238584782432031 0.1925626107070619 0.19192836383295628 0.19217588014938231
leaf_weight=19.528162099421028 0.82449421379715282 11.516664303839205 2.5774633325636414 5.7632150338031378 11.744959597010164 8.4740826338529569 17.969321600161493 30.831530216149986 8.2860675128176826 6.7651097001507869 9.0426566153764707 9.9289039936847932 1.8425662592053411 4.5948964469134799 1.3605661308392885 2.9026721054688087 1.9657520893961189 0.80756854079663831 0.5040351105853923 0.45976691087707877 1.7414732789620764
leaf_count=144 48 345 31 122 301 544 339 555 76 69 110 1406 33 35 159 331 166 91 49 65 209
internal_value=0.00535029 -0.0154023 -0.0712003 0.0187722 -0.0448369 0.00284844 -0.0221397 0.00901961 0.0382896 0.0778669 -0.021762 0.154837 0.0714681 -0.138492 0.147126 -0.196529 0.192668 0.19201 0.191986 0.19226 0.191963
internal_weight=159.432 139.997 34.505 20.0856 17.5082 105.492 61.8698 48.8009 43.622 26.2933 17.3287 19.4351 5.99338 13.069 4.15081 14.4193 3.32632 13.4417 12.6342 0.963802 11.6704
internal_count=5228 3002 1130 454 423 1872 1473 894 399 213 186 2226 406 579 373 676 325 1820 1729 114 1615
is_linear=0
shrinkage=0.190561


Tree=23
num_leaves=23
num_cat=0
split_feature=10 15 2 2 2 2 8 0 12 12 13 13 2 9 8 13 2 2 9 2 2 2
split_gain=10.8848 3.60042 2.65526 10.2562 5.92713 1.74905 13.5961 1.49696 4.10625 2.26161 1.094 1.07792 0.00242012 0.000932328 6.37617e-05 5.79366e-05 2.37758e-06 1.53176e-06 1.92464e-06 1.16731e-06 4.32564e-07 1.27056e-10
threshold=1.0000000180025095e-35 0.20707555860280993 0.58476847410202037 0.58879092335701 0.60073012113571178 0.55949765443801891 1.0000000180025095e-35 1.0000000180025095e-35 1.0000000180025095e-35 1.0000000180025095e-35 0.41572935879230505 0.42313686013221746 0.5347418785095216 0.089587975293397917 1.0000000180025095e-35 0.61462414264678966 0.60115841031074535 0.63663998246192943 0.1242453344166279 0.53211340308189403 0.62851315736770641 0.64164182543754589
decision_type=2 2 2 2 2 2 2 2 2 2 2 2 2 2 2 2 2 2 2 2 2 2
left_child=1 2 7 13 -5 10 -7 9 -9 -1 12 -12 14 -4 -2 16 19 18 -8 -3 -18 -19
right_child=5 15 3 4 -6 6 17 8 -10 -11 11 -13 -14 -15 -16 -17 20 21 -20 -21 -22 -23
leaf_value=0.045594548415554326 0.19267259061172134 -0.19222697023493512 -0.19630933493517985 0.25042213659733903 -0.021771946025986609 -0.88662901377405201 0.19238295014777881 -0.16044827346571347 0.24491113171814716 -0.013199876615525156 -0.23563905727626464 0.19173251649856796 0.19957897643902106 -0.19211084457477298 0.19168846613116466 -0.19448061934965119 -0.19179438493591353 0.19168433274616806 0.19189353018981417 -0.19258186545771833 -0.19204344137982768 0.19168918207414659
leaf_weight=41.45238147303462 3.5473392195999605 1.4481011824682353 9.5731311701238173 3.5884302109479931 15.254776888061313 0.50359961390495245 0.36584483273327362 4.9312155656516543 1.1121314242482183 55.658406850881875 0.44375766068697053 0.4144846498966217 1.7854589796625084 2.4027175819501272 7.3322726427577436 0.44054309464991082 0.31222387077286828 0.2909164736047386 1.4412288432940841 0.43845568131655444 1.3403432844206689 0.6026251376606524
leaf_count=688 372 172 345 31 199 3 39 342 10 594 46 69 81 331 1254 23 49 50 209 43 175 103
internal_value=0.00380322 -0.0137994 -0.00849349 -0.0575743 0.0300637 0.148973 0.0223829 0.00617025 -0.0858517 0.0118969 0.178967 -0.0292417 0.193076 -0.195467 0.192009 -0.19242 -0.192163 0.191892 0.191993 -0.192309 -0.191996 0.191688
internal_weight=154.68 137.953 133.973 30.8191 18.8432 16.7275 3.20421 103.154 6.04335 97.1108 13.5233 0.858242 12.6651 11.9758 10.8796 3.97967 3.53912 2.70062 1.80707 1.88656 1.65257 0.893542
internal_count=5228 3002 2540 906 230 2226 404 1634 352 1282 1822 115 1707 676 1626 462 439 401 248 215 224 153
is_linear=0
shrinkage=0.190561


Tree=24
num_leaves=23
num_cat=0
split_feature=10 2 2 2 2 8 1 13 13 13 2 2 2 12 1 12 2 9 13 13 1 9
split_gain=8.88998 2.2381 7.63625 8.57939 2.08977 1.55856 6.75513 1.44276 4.71138 3.54134 1.52973 1.66929 1.3196 1.1078 0.440603 1.02156 0.000874301 0.000520083 8.75014e-06 6.95737e-06 1.34889e-06 8.07862e-07
threshold=1.0000000180025095e-35 0.58476847410202037 0.58879092335701 0.59269943833351146 0.65702867507934581 1.0000000180025095e-35 0.36632329225540167 -1.0000000180025095e-35 1.0000000180025095e-35 0.3966000378131867 0.53466320037841808 0.52314683794975292 0.57476851344108593 1.0000000180025095e-35 0.3276966810226441 1.0000000180025095e-35 0.5347418785095216 0.089587975293397917 0.41572935879230505 0.42313686013221746 0.51238930225372326 0.1242453344166279
decision_type=2 2 2 2 2 2 2 2 2 2 2 2 2 2 2 2 2 2 2 2 2 2
left_child=1 7 17 -4 -5 6 14 10 13 -10 11 -1 -12 -9 15 -2 -16 -3 20 -20 21 -7
right_child=5 2 3 4 -6 18 -8 8 9 -11 12 -13 -14 -15 16 -17 -18 -19 19 -21 -22 -23
leaf_value=0.02647007472502208 -0.12908064666988397 -0.19528737566543491 0.47005622209484649 0.0035710670790381634 -0.1670643201265011 0.19149092974457729 -0.48786707356782694 -0.17430529404876036 0.072005893619965886 -0.033114355129932924 -0.075626247043782346 0.13193482612559268 0.030685741307405923 -0.052632286008376251 0.19237829343481921 0.19172127578714354 0.1992156831374742 -0.19184149081535223 0.19265069307104582 0.19152816710800108 0.1918401856297654 0.19166087801988768
leaf_weight=20.54157051071525 0.5881514595821471 7.9494664054363984 1.3670432642102266 16.129408736247573 3.1086480757221571 6.8524054428562486 0.70278227329254139 7.1062280694022757 19.031936364714056 29.953392503317446 7.811752435751262 7.4178747348487368 9.2723694704473001 4.3997121267020702 1.4917293377220631 0.93112284876406193 1.2466901913285255 1.9883487601764498 0.48282281029969532 0.34289917536079884 0.49513044394552785 1.1924725701101122
leaf_count=144 40 345 12 395 47 1418 3 544 339 555 76 69 110 35 174 159 30 331 45 69 79 209
internal_value=0.00306446 -0.0119679 -0.0573958 0.00877658 -0.0240016 0.14585 0.0594841 0.00117945 -0.0180472 0.0077273 0.0269998 0.0544508 -0.0179256 -0.127779 0.149831 0.0675303 0.195491 -0.194598 0.191592 0.192185 0.191535 0.191516
internal_weight=150.404 136.078 30.5429 20.6051 19.2381 14.3262 4.96048 105.535 60.4913 48.9853 45.0436 27.9594 17.0841 11.5059 4.25769 1.51927 2.73842 9.93782 9.36573 0.825722 8.54001 8.04488
internal_count=5228 3002 1130 454 442 2226 406 1872 1473 894 399 213 186 579 403 199 204 676 1820 114 1706 1627
is_linear=0
shrinkage=0.190561


Tree=25
num_leaves=16
num_cat=0
split_feature=10 15 15 2 1 2 2 8 2 11 13 1 13 2 2
split_gain=7.20475 7.48789 3.03774 1.62216 4.83811 4.90418 0.857392 3.92037 0.000734249 4.71147e-05 2.71524e-05 1.81875e-06 2.33262e-06 4.85194e-07 2.11652e-07
threshold=1.0000000180025095e-35 0.14931329339742663 0.20707555860280993 0.65702867507934581 0.48400469124317175 0.58476847410202037 0.55949765443801891 1.0000000180025095e-35 0.5347418785095216 1.0000000180025095e-35 0.61257091164588939 0.44127798080444341 -1.0000000180025095e-35 0.63663998246192943 0.62851315736770641
decision_type=2 2 2 2 2 2 2 2 2 2 2 2 2 2 2
left_child=2 6 3 4 5 -1 8 -8 9 -2 11 12 -4 -9 -13
right_child=1 -3 10 -5 -6 -7 7 13 -10 -11 -12 14 -14 -15 -16
leaf_value=0.0041678530172966546 0.19148980981833133 -0.7725519425114411 -0.19243484293934382 -0.15265122543102105 0.15128739538285912 -0.10362587206062911 -0.4112579840125633 0.191536441326596 0.19663432350188306 0.19290067777986381 -0.19364861541225475 -0.19158277596864659 -0.19190121346677971 0.19132892703373997 -0.19177422419809484
leaf_weight=103.40234907204285 7.3143203882500458 0.31631062179803926 0.40199217246845353 2.6829578136093906 6.9846883490681639 17.993747035041451 0.49731519818306069 1.2371083344332872 1.2360811941325671 0.97396389488130797 0.36214969400316466 0.25922721810638893 1.14395534992218 0.61134980246424686 1.0974296908825634
leaf_count=1634 1625 2 43 31 87 788 2 248 81 115 24 49 171 153 175
internal_value=0.00220409 0.142501 -0.0105238 -0.006001 -0.00293624 -0.0118097 0.166885 0.0636871 0.192302 0.191656 -0.192093 -0.191899 -0.19204 0.191468 -0.191738
internal_weight=146.515 12.1864 134.328 131.064 128.381 121.396 11.8701 2.34577 9.52437 8.28828 3.26475 2.9026 1.54595 1.84846 1.35666
internal_count=5228 2226 3002 2540 2509 2422 2224 403 1821 1740 462 438 214 401 224
is_linear=0
shrinkage=0.190561


Tree=26
num_leaves=18
num_cat=0
split_feature=10 1 1 1 2 2 8 1 12 0 1 12 2 2 0 1 9
split_gain=5.88698 1.22503 7.32021 3.38442 2.79693 4.92817 1.18567 3.00894 1.00282 0.936665 0.455491 0.744746 0.37507 0.000271227 1.61006e-06 4.2426e-07 2.54472e-07
threshold=1.0000000180025095e-35 0.50196643173694622 0.48400469124317175 0.66167339682579052 0.58476847410202037 0.58971750736236583 1.0000000180025095e-35 0.36632329225540167 1.0000000180025095e-35 1.0000000180025095e-35 0.3276966810226441 1.0000000180025095e-35 0.64647066593170177 0.5347418785095216 1.0000000180025095e-35 0.51238930225372326 0.1242453344166279
decision_type=2 2 2 2 2 2 2 2 2 2 2 2 2 2 2 2 2
left_child=1 2 4 8 9 -6 7 10 12 -1 11 -2 -3 -12 15 16 -8
right_child=6 3 -4 -5 5 -7 14 -9 -10 -11 13 -13 -14 -15 -16 -17 -18
leaf_value=0.0045955190245474953 -0.10093625928053215 -0.21293427361773534 0.30552040975347949 0.19161488482255418 -0.1952391941261401 0.011781221479418909 0.19119487274094074 -0.31279689287868156 -0.011785344804848275 -0.077185809724082913 0.19179946549090454 0.1913520180104675 -0.099938078519100457 0.19638654113458201 0.19150713800089295 0.1914330495581176 0.19131075731455566
leaf_weight=99.889377901796252 0.62911362014710792 3.5170413129962963 2.710551504045724 1.3821045286022124 7.7200971138663617 9.0950441840104741 4.3944682781584561 0.66043896973133076 1.7648287937045095 5.3584354482591143 1.0222049360163508 0.63716998393647373 1.5311143258586524 0.86350863799452771 0.85670967027544964 0.33892372017726291 0.81586075341328967
leaf_count=1515 40 160 16 91 677 132 1330 3 14 357 174 159 40 30 202 79 209
internal_value=0.00180386 -0.00890752 -0.00421995 -0.0802777 -0.0110981 -0.0832651 0.141187 0.0570449 -0.135435 0.000431822 0.134538 0.0461377 -0.178662 0.1939 0.191264 0.191226 0.191213
internal_weight=143.187 132.969 124.774 8.19509 122.063 16.8151 10.2184 3.81244 6.81298 105.248 3.152 1.26628 5.04816 1.88571 6.40596 5.54925 5.21033
internal_count=5228 3002 2697 305 2681 809 2226 406 214 1872 403 199 200 204 1820 1618 1539
is_linear=0
shrinkage=0.190561


Tree=27
num_leaves=15
num_cat=0
split_feature=15 7 8 2 2 2 7 2 8 12 2 13 12 2
split_gain=4.12098 6.07317 3.57088 1.32291 4.22726 3.10635 0.705295 0.648664 2.22055 0.00133316 0.000218949 5.00571e-05 4.16485e-05 1.54052e-07
threshold=0.14931329339742663 1.0000000180025095e-35 1.0000000180025095e-35 0.64072266221046459 0.62830767035484325 0.60073012113571178 1.0000000180025095e-35 0.55949765443801891 1.0000000180025095e-35 1.0000000180025095e-35 0.5347418785095216 0.61578857898712169 1.0000000180025095e-35 0.63663998246192943
decision_type=2 2 2 2 2 2 2 2 2 2 2 2 2 2
left_child=1 3 6 4 5 -1 9 10 -9 11 12 -2 -3 -10
right_child=2 7 -4 -5 -6 -7 -8 8 13 -11 -12 -13 -14 -15
leaf_value=-0.00012960233648490446 -0.19173870119584854 0.19267480598477552 0.2054680533176774 -0.1013353349729359 0.17158005177272795 -0.16486652001439595 -0.38365588740730805 -0.29755106246495755 0.19122619093174217 -0.20296117664051783 0.19467003517410778 -0.19401004530079577 0.19119451807778384 0.1910848011098378
leaf_weight=112.53021008218639 2.6827321844175458 0.80065179313532819 0.80241404473781575 4.749692788347601 5.0666996315121642 4.3160137794911853 0.8841920495033263 0.46055808663368192 0.84632411855272949 0.46701453253626812 0.85203363536857057 0.40561788994818915 5.0032309591770172 0.41806505993008614
leaf_count=2308 476 115 4 60 48 69 5 2 248 9 81 25 1625 153
internal_value=0.00129073 0.00772558 -0.164484 -0.00266943 0.00117456 -0.00621458 -0.231349 0.164829 0.0606892 -0.193472 0.191817 -0.192037 0.191399 0.191179
internal_weight=140.285 135.043 5.24197 126.663 121.913 116.846 4.43956 8.38086 1.72495 3.55536 6.65592 3.08835 5.80388 1.26439
internal_count=5228 4709 519 2485 2425 2377 515 2224 403 510 1821 501 1740 401
is_linear=0
shrinkage=0.190561


Tree=28
num_leaves=14
num_cat=0
split_feature=1 8 6 15 14 1 9 2 1 7 7 15 13
split_gain=5.17533 3.76089 5.0152 4.30383 3.43068 6.66043 3.75024 3.36059 4.54972 2.88157 0.453508 0.000523272 7.42694e-07
threshold=0.66234010457992565 1.0000000180025095e-35 1.0000000180025095e-35 0.14931329339742663 1.0000000180025095e-35 0.4226807057857514 0.089587975293397917 0.63728663325309765 0.48400469124317175 1.0000000180025095e-35 1.0000000180025095e-35 0.20707555860280993 0.41572935879230505
decision_type=2 2 2 2 2 2 2 2 2 2 2 2 2
left_child=1 3 7 4 6 -6 -1 8 -3 -4 11 -5 -11
right_child=-2 2 9 10 5 -7 -8 -9 -10 12 -12 -13 -14
leaf_value=-0.012395487155249239 0.3981448969757333 0.028694050320835118 0.66615107873192159 -0.19762026240078068 0.33135688832647359 -0.19134234001064568 -0.16843908480049197 -0.1620990759504311 0.3388643724978645 0.19101784519816248 -0.35778262406004563 -0.19163383678973397 0.19131126085354572
leaf_weight=78.859604650642723 1.1852809782139946 36.17452951730229 0.59686453267931883 0.71389221074059594 2.6601292164996262 1.3267853017896412 6.0198123180307439 3.1271507367491713 1.8029145151376713 1.6924291895702483 0.77824361622333516 2.0609322458039969 0.38441972248256195
leaf_count=1258 47 1450 4 42 414 347 373 31 8 723 5 432 114
internal_value=0.00167425 -0.00177609 0.0442333 -0.0235704 -0.0153477 0.15741 -0.0234624 0.0277835 0.0434189 0.297126 -0.229229 -0.193174 0.191072
internal_weight=137.383 136.198 43.7783 92.4194 88.8663 3.98691 84.8794 41.1046 37.9774 2.67371 3.55307 2.77482 2.07685
internal_count=5248 5201 2330 2871 2392 761 1631 1489 1458 841 479 474 837
is_linear=0
shrinkage=0.190561


Tree=29
num_leaves=19
num_cat=0
split_feature=10 15 2 2 1 1 1 1 9 9 2 13 2 9 1 9 2 12
split_gain=3.39844 3.30976 1.56753 4.68176 2.57818 4.30466 3.20933 2.80616 1.77074 2.13846 0.947365 0.302479 0.2405 0.25351 0.996412 0.000161767 4.27375e-05 7.41173e-06
threshold=1.0000000180025095e-35 0.14931329339742663 0.53466320037841808 0.5263996720314027 0.42972624301910406 0.43502572178840643 0.45163241028785711 0.4226807057857514 0.1242453344166279 0.089587975293397917 0.57476851344108593 0.40656916797161108 0.55949765443801891 0.1242453344166279 0.49663290381431585 0.089587975293397917 0.5347418785095216 1.0000000180025095e-35
decision_type=2 2 2 2 2 2 2 2 2 2 2 2 2 2 2 2 2 2
left_child=2 12 3 8 7 -6 -7 10 9 -1 -4 -10 16 14 -14 -9 17 -2
right_child=1 -3 4 -5 5 6 -8 15 11 -11 -12 -13 13 -15 -16 -17 -18 -19
leaf_value=0.00081450247614764154 0.19175677752704401 -0.4752346904675358 -0.099577515078236978 0.17320027088779613 0.29404848358611885 -0.20520592263508336 0.022804397053576311 -0.19391459832990429 0.18561148585055071 -0.10782744100073767 -0.0077601500590486813 0.079535713696448143 -0.30122976730996459 0.19105797102386285 0.19098497995290029 -0.19125786675965553 0.19289207763125601 0.19099474249592008
leaf_weight=68.579949114471674 0.53302639722823997 0.30214181542396534 6.3120613880455556 5.8928119176998726 1.8389865383505846 2.6576794320717481 14.321369881043209 4.7235755305737248 1.4562724309507746 7.2773840937297782 11.543547311797736 2.9610955489333719 0.2324145436286924 0.54740065755322576 0.41786177363246679 1.0102733480744062 0.54403445287607599 3.5526900980621576
leaf_count=799 121 2 66 62 17 72 373 329 81 551 124 191 1 211 198 328 83 1639
internal_value=0.0011043 0.139731 -0.00550445 0.00925647 -0.0354971 0.0171096 -0.0128854 -0.0774631 -0.00277833 -0.00960808 -0.0402181 0.114506 0.171615 0.0955019 0.015063 -0.193446 0.191305 0.191094
internal_weight=134.705 6.12957 128.575 86.1675 42.4075 18.818 16.979 23.5895 80.2747 75.8573 17.8556 4.41737 5.82743 1.19768 0.650276 5.73385 4.62975 4.08572
internal_count=5248 2255 2993 1684 1309 462 445 847 1622 1350 190 272 2253 410 199 657 1843 1760
is_linear=0
shrinkage=0.190561


Tree=30
num_leaves=9
num_cat=0
split_feature=1 1 10 15 13 13 2 1
split_gain=4.66173 3.00756 2.77913 2.42473 1.22677 4.17132 0.206126 0.0172144
threshold=0.66358914971351635 0.64449253678321849 1.0000000180025095e-35 0.14931329339742663 0.59725272655487072 0.55667299032211315 0.55949765443801891 0.66153952479362499
decision_type=2 2 2 2 2 2 2 2
left_child=1 2 4 6 5 -1 -4 -3
right_child=-2 7 3 -5 -6 -7 -8 -9
leaf_value=-0.0010033440108593945 0.37746760560484871 -0.20823121699447439 0.19117598754824405 -0.38718939211314235 0.075201007695737787 -0.16757595901700717 0.094333705523466233 -0.24288619555950081
leaf_weight=111.20813510031439 1.1813385426066805 1.4475608379580074 3.828802970936521 0.30014484003186215 6.6102394042536607 5.7410956392996004 1.0083110528066752 0.81276244530454267
leaf_count=2678 38 81 1843 2 87 51 410 58
internal_value=0.000616081 -0.00278342 0.00104375 0.138377 -0.0046662 -0.00918048 0.170989 -0.220692
internal_weight=132.138 130.957 128.697 5.13726 123.559 116.949 4.83711 2.26032
internal_count=5248 5210 5071 2255 2816 2729 2253 139
is_linear=0
shrinkage=0.190561


Tree=31
num_leaves=7
num_cat=0
split_feature=2 2 1 1 1 9
split_gain=2.72071 4.0577 2.78122 3.23839 3.81362 0.00803004
threshold=0.65702867507934581 0.64854690432548534 0.66234010457992565 0.6217603087425233 0.49015018343925482 0.089587975293397917
decision_type=2 2 2 2 2 2
left_child=1 2 3 4 -1 -5
right_child=-2 -3 -4 5 -6 -7
leaf_value=-0.0024360166115130538 -0.21192718863399254 0.33014980637378388 0.2804197287686469 -0.21659563010412891 0.24804611240456187 -0.19497052902314246
leaf_weight=121.13410570053384 2.1554918917827299 1.3700440662214521 1.2755071166902769 1.7250809818506234 2.24821895698551 0.97652099793776859
leaf_count=4734 48 45 16 19 195 191
internal_value=0.000395227 0.00395043 0.000441403 -0.00239095 0.00212816 -0.208779
internal_weight=130.885 128.729 127.359 126.084 123.382 2.7016
internal_count=5248 5200 5155 5139 4929 210
is_linear=0
shrinkage=0.190561


Tree=32
num_leaves=7
num_cat=0
split_feature=2 1 2 1 1 1
split_gain=2.19048 2.16182 3.23257 3.21386 2.50328 0.0248251
threshold=0.65702867507934581 0.66358914971351635 0.64854690432548534 0.6217603087425233 0.49015018343925482 0.66194063425064098
decision_type=2 2 2 2 2 2
left_child=1 2 3 4 -1 -5
right_child=-2 -3 -4 5 -6 -7
leaf_value=-0.0019749654266909096 -0.20792193923617441 0.24803796643708542 0.28690800824312601 -0.2034236473916558 0.20116530144456679 -0.24761961541625438
leaf_weight=120.96071685140487 1.8124004616402078 1.2947613978758443 1.415618439670651 1.9604765600524836 2.2437144550494841 0.60362407006323326
leaf_count=4734 48 20 32 185 195 34
internal_value=0.000112458 0.00304712 0.000553057 -0.00267008 0.00172449 -0.213828
internal_weight=130.291 128.479 127.184 125.769 123.204 2.5641
internal_count=5248 5200 5180 5148 4929 219
is_linear=0
shrinkage=0.190561


Tree=33
num_leaves=17
num_cat=0
split_feature=15 7 8 9 8 9 12 15 1 8 7 15 1 1 12 1
split_gain=2.3319 2.95268 2.00501 1.44075 1.66024 1.11161 2.47772 2.44229 0.275851 0.981959 0.091537 0.000261479 4.12953e-05 1.336e-05 2.29213e-06 1.10991e-07
threshold=0.14931329339742663 1.0000000180025095e-35 1.0000000180025095e-35 0.1242453344166279 1.0000000180025095e-35 0.089587975293397917 1.0000000180025095e-35 1.0000000180025095e-35 0.36632329225540167 1.0000000180025095e-35 1.0000000180025095e-35 0.20707555860280993 0.6897704303264619 0.3540854305028916 1.0000000180025095e-35 0.40517471730709081
decision_type=2 2 2 2 2 2 2 2 2 2 2 2 2 2 2 2
left_child=1 3 10 5 -5 6 -1 -7 13 -10 11 -2 -13 14 -3 -11
right_child=2 8 -4 4 -6 7 -8 -9 9 15 -12 12 -14 -15 -16 -17
leaf_value=0.03111713227098958 -0.1961535631671438 0.19139161759467363 0.10738681704392589 -0.069906147202440899 0.19315815878116521 -0.15701994653835416 -0.02623915297727011 0.073259973516427365 -0.28015017827082106 0.19093624292644978 -0.27029871890494228 -0.19152778617296395 -0.19440134123815497 0.1920921977596218 0.19085831564649988 0.19076381106472831
leaf_weight=50.788024500478059 0.70529488171450783 0.33257200405932952 0.92894469201564778 1.2670812788419414 2.7883431985974312 4.7727303421124807 59.265132672153413 2.574648838955909 0.21752429008483876 0.41383816348388791 0.71131278201937664 1.6528125727782024 0.20402307389304031 0.40648011164739717 2.4384793294593692 0.20158852060558274
leaf_count=1030 47 109 4 21 211 374 464 373 1 211 5 455 11 93 1639 200
internal_value=-6.84681e-05 0.00460841 -0.139701 -0.000703711 0.110966 -0.00456117 0.000229987 -0.0763259 0.165484 0.0678708 -0.20982 -0.19303 -0.191844 0.191072 0.190922 0.19088
internal_weight=129.669 125.466 4.20239 121.456 4.05542 117.401 110.053 7.34738 4.01048 0.832951 3.27344 2.56213 1.85684 3.17753 2.77105 0.615427
internal_count=5248 4726 522 2473 232 2241 1494 747 2253 412 518 513 466 1841 1748 411
is_linear=0
shrinkage=0.190561


Tree=34
num_leaves=18
num_cat=0
split_feature=15 10 8 2 2 2 2 2 8 2 8 15 1 2 13 12 1
split_gain=1.811 2.44389 1.65048 1.51676 2.36095 2.08028 2.56458 1.83353 1.78229 0.234951 0.777467 0.0217576 2.31538e-05 7.7871e-06 3.66393e-06 1.34969e-06 6.23672e-08
threshold=0.14931329339742663 1.0000000180025095e-35 1.0000000180025095e-35 0.55949765443801891 0.5263996720314027 0.58971750736236583 0.58476847410202037 0.60073012113571178 1.0000000180025095e-35 0.55949765443801891 1.0000000180025095e-35 0.20707555860280993 0.6897704303264619 0.5347418785095216 0.61578857898712169 1.0000000180025095e-35 0.49663290381431585
decision_type=2 2 2 2 2 2 2 2 2 2 2 2 2 2 2 2 2
left_child=1 3 11 4 8 6 -5 -7 -1 13 -11 -2 14 15 -13 -3 -12
right_child=2 9 -4 5 -6 7 -8 -9 -10 10 16 12 -14 -15 -16 -17 -18
leaf_value=-0.016723557044550946 -0.22581955790069722 0.19123797205567478 0.084492832833942974 -0.02942202718474907 0.1038445833399456 0.12319001370588578 -0.1829137845519912 -0.022209187245712539 0.047283692324024143 -0.2582608787506897 0.19087101671733692 -0.19124709037490331 -0.19372320519760788 0.19187939988416813 -0.19222307292273391 0.19080666844033423 0.19072826273801174
leaf_weight=54.057696555741131 1.2056670070160178 0.30308588081970844 0.95269685983657826 12.235005024820568 9.2650127951055747 4.1990244761109379 5.8395130797289303 12.599565122975035 22.32028104737401 0.19342145323753346 0.34214070183224976 1.2092021382413802 0.1691562053747474 0.31038608844391991 0.15792078711092461 2.0158836448099464 0.16459955665050074
leaf_count=1061 52 121 4 128 63 28 675 177 341 1 211 436 11 83 19 1639 198
internal_value=-0.000113109 0.00380896 -0.131582 -0.00064045 0.0130013 -0.0341425 -0.0790121 0.0141352 0.00198157 0.164861 0.0667636 -0.206658 -0.19162 0.190983 -0.19136 0.190863 0.190825
internal_weight=127.54 123.846 3.69464 120.516 85.643 34.8731 18.0745 16.7986 76.378 3.32952 0.700162 2.74195 1.53628 2.62936 1.36712 2.31897 0.50674
internal_count=5248 4726 522 2473 1465 1008 803 205 1402 2253 410 518 466 1843 455 1760 409
is_linear=0
shrinkage=0.190561


Tree=35
num_leaves=17
num_cat=0
split_feature=15 7 8 9 8 12 0 8 12 8 6 7 15 9 9 0
split_gain=1.39372 1.60996 1.38715 0.779185 1.87011 0.925066 2.91064 0.330588 0.307063 0.268435 0.253107 0.0305902 7.9769e-05 3.41301e-06 2.62413e-08 2.36031e-08
threshold=0.14931329339742663 1.0000000180025095e-35 1.0000000180025095e-35 0.1242453344166279 1.0000000180025095e-35 1.0000000180025095e-35 1.0000000180025095e-35 1.0000000180025095e-35 1.0000000180025095e-35 1.0000000180025095e-35 1.0000000180025095e-35 1.0000000180025095e-35 0.20707555860280993 0.1242453344166279 0.1242453344166279 1.0000000180025095e-35
decision_type=2 2 2 2 2 2 2 2 2 2 2 2 2 2 2 2
left_child=1 3 11 5 -5 6 -1 8 -3 -7 -10 12 -2 -14 15 -9
right_child=2 7 -4 4 -6 9 -8 14 10 -11 -12 -13 13 -15 -16 -17
leaf_value=0.023972914183795189 -0.1942109703377834 0.19160354321295794 0.067172034558675986 -0.085665153276305916 0.19260363387218998 -0.01015716929544561 -0.14831569027566435 0.19074331827511448 -0.079843595191690653 -0.035953867520808931 0.19074836963499286 -0.24381790259408523 -0.19118707959758544 -0.19185930204177742 0.19081716099803867 0.19081023506523437
leaf_weight=53.002144648460671 0.5180962961167096 0.40195502457208843 0.96809114515781391 1.4382407525554293 2.2474895538762212 32.955242089927197 3.8172149909660211 1.3238573297276159 0.54143143142573535 26.368211697787046 0.16341565182665363 0.54513761214911927 0.8570788102224467 0.40334266982972622 0.27212550991680484 0.22376379987690587
leaf_count=1434 50 82 4 23 215 286 339 1414 161 182 173 5 357 106 203 199
internal_value=-0.00211268 0.00116864 -0.124479 -0.00224188 0.084018 -0.00497929 0.0123983 0.140813 0.0586893 -0.0216233 -0.0171081 -0.204325 -0.19222 -0.191402 0.190763 0.190753
internal_weight=126.047 122.755 3.29175 119.829 3.68573 116.143 56.8194 2.92655 1.1068 59.3235 0.704847 2.32366 1.77852 1.26042 1.81975 1.54762
internal_count=5233 4711 522 2479 238 2241 1773 2232 416 468 334 518 513 463 1816 1613
is_linear=0
shrinkage=0.190561


Tree=36
num_leaves=9
num_cat=0
split_feature=1 1 13 13 13 1 9 1
split_gain=1.64012 2.57718 1.03695 3.60545 1.08722 0.0174804 0.00127253 0.000151379
threshold=0.66358914971351635 0.6217603087425233 0.59725272655487072 0.57974430918693554 0.51710885763168346 0.66194063425064098 0.089587975293397917 0.6248762607574464
decision_type=2 2 2 2 2 2 2 2
left_child=1 2 3 4 -1 6 -3 -8
right_child=-2 5 -4 -5 -6 -7 7 -9
leaf_value=-0.0041629635040909873 0.21423517261683758 -0.20587323783648059 0.073468160927174217 -0.22611777948173473 0.07434976137940405 -0.24344265811286775 -0.19746889324137262 -0.19109520388846551
leaf_weight=105.04493484867271 1.2635440598241974 1.1077971458435052 6.5419499957934013 2.6059411116875699 6.8206401059869668 0.48040329769719381 0.3060400066897272 0.24257023475365713
leaf_count=4783 37 18 87 28 73 32 12 163
internal_value=-0.00176763 -0.00398386 -0.000320707 -0.00453768 0.000624095 -0.211438 -0.202156 -0.194651
internal_weight=124.414 123.15 121.013 114.472 111.866 2.13681 1.65641 0.54861
internal_count=5233 5196 4971 4884 4856 225 193 175
is_linear=0
shrinkage=0.190561


Tree=37
num_leaves=15
num_cat=0
split_feature=15 2 7 13 13 13 13 2 8 8 7 2 12 1
split_gain=1.12944 1.31046 1.29012 1.17861 0.859929 2.94526 2.26892 0.594546 0.831397 0.149117 0.0154496 2.65392e-06 4.16211e-07 1.90328e-08
threshold=0.14931329339742663 0.65478873252868663 1.0000000180025095e-35 0.51710885763168346 0.59725272655487072 0.55667299032211315 0.51710885763168346 0.55949765443801891 1.0000000180025095e-35 1.0000000180025095e-35 1.0000000180025095e-35 0.5347418785095216 1.0000000180025095e-35 0.49663290381431585
decision_type=2 2 2 2 2 2 2 2 2 2 2 2 2 2
left_child=2 3 4 9 5 6 -1 11 -9 10 -2 12 -4 -10
right_child=1 -3 7 -5 -6 -7 -8 8 13 -11 -12 -13 -14 -15
leaf_value=-0.004452596650895607 -0.19216759115400431 0.21246721356032344 0.1910232797811118 0.082798810515560858 0.065236044289713108 -0.14916371910962292 0.1401848410523916 -0.23863863341004535 0.19077353246673426 -0.32597995320748785 -0.23367038082836195 0.19147895622165817 0.19074096241741806 0.19067614465773927
leaf_weight=102.93833230459131 1.0787325209821577 0.37945089966524381 0.21871216612635103 0.54173550056293596 6.5955100376158944 4.9574156161397687 4.0951435267925254 0.32175517082214344 0.22589411749504507 0.48326343297958363 0.46659313887357701 0.22306315903551865 1.4260998335084878 0.10757510550320148
leaf_count=2356 426 24 128 65 49 44 30 2 203 2 5 83 1628 188
internal_value=-0.00160022 -0.118105 0.00123741 -0.166907 -0.00163145 -0.00556949 0.00108129 0.136075 -0.02011 -0.233591 -0.204699 0.190862 0.190779 0.190742
internal_weight=124.059 2.94978 121.11 2.57032 118.586 111.991 107.033 2.5231 0.655224 2.02859 1.54533 1.86788 1.64481 0.333469
internal_count=5233 522 4711 498 2479 2430 2386 2232 393 433 431 1839 1756 391
is_linear=0
shrinkage=0.190561


Tree=38
num_leaves=12
num_cat=0
split_feature=1 1 1 2 1 1 2 2 1 9 1
split_gain=1.06841 2.05532 1.05519 2.52058 2.07711 1.94735 3.3297 1.25889 0.00983711 0.000644055 7.74465e-05
threshold=0.66358914971351635 0.6217603087425233 0.46295651793479925 0.63052645325660717 0.42622831463813787 0.50196643173694622 0.62018463015556347 0.65553969144821178 0.66194063425064098 0.089587975293397917 0.6248762607574464
decision_type=2 2 2 2 2 2 2 2 2 2 2
left_child=1 2 3 4 -1 6 -4 -7 9 -3 -11
right_child=-2 8 5 -5 -6 7 -8 -9 -10 10 -12
leaf_value=-0.0062209942868841333 0.1713471106240764 -0.20302424359713697 -0.068114525269394433 -0.21062084152303895 0.12774064950206943 0.076469841563815075 0.24880936845473961 -0.20584813617826736 -0.23410341898365084 -0.19621760524974705 -0.19100644905027014
leaf_weight=106.17407219653251 1.2862163181416679 0.92332005873322376 1.8918115906417359 2.1213582530617705 4.3763146158307782 1.057376016804483 3.3102424437238369 1.2535110479220746 0.40330259181791905 0.25284429336898029 0.1754071130999364
leaf_count=4590 37 18 16 29 97 96 118 25 32 12 163
internal_value=-0.00142252 -0.00324489 -0.000255385 -0.00486615 -0.000917907 0.0688923 0.133555 -0.0766699 -0.207985 -0.200191 -0.194083
internal_weight=123.226 121.94 120.185 112.672 110.55 7.51294 5.20205 2.31089 1.75487 1.35157 0.428251
internal_count=5233 5196 4971 4716 4687 255 134 121 225 193 175
is_linear=0
shrinkage=0.190561


Tree=39
num_leaves=19
num_cat=0
split_feature=15 8 14 13 13 13 1 1 9 8 13 13 13 8 7 1 12 13
split_gain=0.901652 1.16265 1.15747 5.35376 4.6623 11.9833 1.80688 12.0594 0.749641 1.3802 1.05785 4.34218 3.02987 0.0359292 0.00939369 5.57176e-05 2.28336e-05 2.07427e-07
threshold=0.14931329339742663 1.0000000180025095e-35 1.0000000180025095e-35 0.35053814947605139 0.42113861441612249 0.38526305556297308 0.4226807057857514 0.40517471730709081 0.1242453344166279 1.0000000180025095e-35 0.3960947990417481 0.35994644463062292 0.489100992679596 1.0000000180025095e-35 1.0000000180025095e-35 0.6897704303264619 1.0000000180025095e-35 0.43265597522258764
decision_type=2 2 2 2 2 2 2 2 2 2 2 2 2 2 2 2 2 2
left_child=2 14 8 6 5 -5 7 -4 10 -10 11 -1 -12 -8 15 16 -2 -11
right_child=1 -3 3 4 -6 -7 13 -9 9 17 12 -13 -14 -15 -16 -17 -18 -19
leaf_value=-0.0058361572948919024 -0.19129286494272452 0.061169731374436979 0.044259485294752481 4.1419817280909141 0.36233283478673656 0.19075022881874173 -0.19113253143001788 2.6222623758174404 -0.065498412585272572 0.19223471391012106 -0.16072121207059917 0.17696009651552524 -0.0018732040727577706 -0.12079625891526748 -0.22549611063917613 -0.19463126991221749 -0.19375340534715754 0.19238097910832749
leaf_weight=83.944270848296583 0.95339053950738095 0.949342980980873 2.4572904329979792 0.045866941800340899 0.37436977284960449 0.071047907578758895 0.83602685318328418 0.067706573056056985 1.2561911968514314 1.4197786469012497 5.787493726238611 4.9999739974737158 17.68375888466835 0.38526011173962615 0.39616038091480721 0.28527206322178233 0.15993006899952888 0.46819487586617481
leaf_count=1610 486 4 1845 36 90 84 350 4 15 165 62 58 142 200 5 16 11 50
internal_value=-0.00137657 -0.10938 0.00109737 0.0989133 0.690392 1.74086 0.0213473 0.113387 -0.00248954 0.0892841 -0.00505637 0.00443968 -0.0410416 -0.168945 -0.199593 -0.192255 -0.191646 0.192271
internal_weight=122.541 2.7441 119.797 4.23757 0.491285 0.116915 3.74628 2.525 115.56 3.14416 112.415 88.9442 23.4713 1.22129 1.79475 1.39859 1.11332 1.88797
internal_count=5233 522 4711 2609 210 120 2399 1849 2102 230 1872 1668 204 550 518 513 497 215
is_linear=0
shrinkage=0.190561


Tree=40
num_leaves=18
num_cat=0
split_feature=2 2 2 2 2 12 2 2 8 12 2 2 2 2 2 2 14
split_gain=0.924408 1.68551 3.52011 1.92239 1.17613 6.89466 2.18603 1.69626 1.38938 0.880498 3.0964 2.3938 0.779259 1.86059 0.23235 0.129274 4.82022e-05
threshold=0.57492932677268993 0.58971750736236583 0.59076857566833507 0.58476847410202037 0.55415052175521862 1.0000000180025095e-35 0.53704285621643078 0.52925145626068126 1.0000000180025095e-35 1.0000000180025095e-35 0.64091649651527416 0.64703914523124706 0.56857755780220043 0.55949765443801891 0.58879092335701 0.53211340308189403 1.0000000180025095e-35
decision_type=2 2 2 2 2 2 2 2 2 2 2 2 2 2 2 2 2
left_child=4 3 -3 -2 6 -6 7 8 -1 10 -4 -11 13 -7 16 -9 -5
right_child=1 2 9 14 5 12 -8 15 -10 11 -12 -13 -14 -15 -16 -17 -18
leaf_value=-0.016453157343244183 -0.027686185316165471 0.36625107238723492 0.094605058848730494 -0.19280697260812937 0.37613346833286559 0.40992079058259179 -0.15802653137188286 0.077768759533717494 0.039800572893558872 -0.1099582634486912 -0.21004934353686078 0.13459970579535976 -0.2098715991213238 -0.13776574356927934 -0.075382798061913378 0.1317687286515381 -0.19100100560500632
leaf_weight=54.443023049156182 9.0141809638589638 0.94740334153175609 6.166627148370023 3.5984404599294058 1.9008565165568132 0.30484397305554034 2.9842113191261879 3.7704609334468833 22.54623202613584 6.4385404007625766 1.5076482136500997 1.8771775725763289 1.2841622754931448 0.8626330426777713 0.71929070353507985 2.8093928383896127 0.63075220817700017
leaf_count=1597 110 6 211 349 19 5 27 18 1582 221 136 55 17 210 4 334 332
internal_value=-0.0025833 -0.0310573 0.00935196 -0.0800756 0.00709537 0.103754 0.00223473 0.00795758 2.06954e-05 -0.0117942 0.0347542 -0.0547521 -0.107434 0.00524259 -0.175508 0.100825 -0.192538
internal_weight=121.806 30.9001 16.9374 13.9627 90.9058 4.3525 86.5533 83.5691 76.9893 15.99 7.67428 8.31572 2.45164 1.16748 4.94848 6.57985 4.22919
internal_count=5233 1424 629 795 3809 251 3558 3531 3179 623 347 276 232 215 685 352 681
is_linear=0
shrinkage=0.190561


Tree=41
num_leaves=20
num_cat=0
split_feature=6 8 1 1 2 1 2 13 1 1 2 1 7 7 15 13 15 1 2
split_gain=1.03097 3.54314 1.85385 2.10895 0.859267 2.93247 1.78031 1.40389 1.29394 1.13832 1.01478 0.452059 0.288711 0.12587 0.0930007 0.116404 0.186409 0.00706203 2.90413e-09
threshold=1.0000000180025095e-35 1.0000000180025095e-35 0.46295651793479925 0.49663290381431585 0.57492932677268993 0.4189195334911347 0.55949765443801891 0.3960947990417481 0.66358914971351635 0.6217603087425233 0.58971750736236583 0.43943729996681219 1.0000000180025095e-35 1.0000000180025095e-35 1.0000000180025095e-35 0.35994644463062292 0.14931329339742663 0.66194063425064098 0.63663998246192943
decision_type=2 2 2 2 2 2 2 2 2 2 2 2 2 2 2 2 2 2 2
left_child=4 14 11 -4 5 6 7 -1 9 10 -6 13 -8 -3 -2 16 -16 -11 -5
right_child=1 2 3 18 8 -7 12 -9 -10 17 -12 -13 -14 -15 15 -17 -18 -19 -20
leaf_value=0.020030571681841851 -0.21266044227182462 0.34254864233090904 1.4062906937346713 0.19071231080539014 -0.070531240649609792 0.26721982000868816 -0.2104327432856466 -0.033273583681174002 0.16550818487069571 -0.198602728867115 0.0034707983016953941 -0.2075695919313312 -0.040356812750818101 0.19067338050532517 0.19067558977545712 -0.20568120370760393 -0.19265268730583471 -0.22941365768986452 0.19064167296312848
leaf_weight=60.005094831624774 0.49873873591422913 0.4851994663476944 0.11714421957731247 0.032499761378858238 13.034778193105021 1.5151017904281605 1.6473083039745682 25.595901114633307 1.1446269331499923 1.0777577239787195 13.909771456033921 0.075227133929729462 0.46469228237401683 0.33496329206082009 0.10228456696495414 0.15464705042541027 0.083817102015018463 0.36049807304516424 0.060442339774454013
leaf_count=2182 6 2 1 41 795 11 25 559 37 193 177 1 205 635 173 3 8 32 147
internal_value=-0.00270296 0.134914 0.359047 0.868499 -0.00495684 0.00436783 -0.000172518 0.00409188 -0.0331348 -0.0411457 -0.0323287 0.239514 -0.173012 0.280521 -0.160234 -0.0834997 0.0180309 -0.206325 0.190666
internal_weight=120.7 1.94496 1.10548 0.210086 118.756 89.2281 87.713 85.601 29.5274 28.3828 26.9445 0.89539 2.112 0.820163 0.839487 0.340749 0.186102 1.43826 0.0929421
internal_count=5233 1017 827 189 4216 2982 2971 2741 1234 1197 972 638 230 637 190 184 181 225 188
is_linear=0
shrinkage=0.190561


Tree=42
num_leaves=17
num_cat=0
split_feature=15 8 7 9 8 1 1 2 8 7 1 12 12 8 8 1
split_gain=0.745551 0.856045 0.854548 0.593489 1.03459 0.564408 2.32214 0.382343 0.640015 0.00471198 2.87705e-05 5.03642e-06 8.32941e-07 3.74584e-07 2.5356e-08 2.10798e-08
threshold=0.14931329339742663 1.0000000180025095e-35 1.0000000180025095e-35 0.1242453344166279 1.0000000180025095e-35 0.4774476438760758 0.43372693657875067 0.55949765443801891 1.0000000180025095e-35 1.0000000180025095e-35 0.6897704303264619 1.0000000180025095e-35 1.0000000180025095e-35 1.0000000180025095e-35 1.0000000180025095e-35 0.49663290381431585
decision_type=2 2 2 2 2 2 2 2 2 2 2 2 2 2 2 2
left_child=2 9 3 5 -5 6 -1 12 -9 10 11 -2 13 -4 -14 -10
right_child=1 -3 7 4 -6 -7 -8 8 15 -11 -12 -13 14 -15 -16 -17
leaf_value=0.0017705994848849264 -0.191185604965216 0.034880257521920824 0.19116649464627991 -0.046637362848279851 0.19195231190265988 0.048274745186182091 -0.13237025298108201 -0.22348147094446527 0.19076302152967606 -0.21780907906639158 -0.19376920441039611 -0.19257644440370031 0.19074211056901111 0.19067740568449718 0.19067194299103693 0.19064752209626418
leaf_weight=99.783510245964862 0.76139752985909515 0.95990167558193196 0.23754436196759232 1.1552184232277787 1.5395384239964187 7.9056897665141141 4.9172841096296898 0.25121572613716114 0.21581058343872428 0.33071338385343541 0.22659653006121516 0.10794857330620289 0.25565741086029448 0.074761184048838913 0.69652859046982485 0.078165209561120719
leaf_count=2067 487 4 80 23 215 93 97 2 204 5 16 11 319 123 1294 192
internal_value=0.00118341 -0.104257 0.00333213 0.0012928 0.089671 -0.000822158 -0.00452934 0.133265 -0.000130922 -0.197873 -0.191857 -0.191358 0.190779 0.191049 0.190691 0.190732
internal_weight=119.497 2.38656 117.111 115.301 2.69476 112.606 104.701 1.80968 0.545192 1.42666 1.09594 0.869346 1.26449 0.312306 0.952186 0.293976
internal_count=5232 523 4709 2495 238 2257 2164 2214 398 519 514 498 1816 203 1613 396
is_linear=0
shrinkage=0.190561


Tree=43
num_leaves=15
num_cat=0
split_feature=13 13 13 13 12 13 13 8 13 13 13 13 13 12
split_gain=0.787283 3.57041 3.20377 3.19037 2.91267 2.05425 1.99402 1.7151 1.93519 2.76774 2.13944 1.53806 4.89243 3.35897
threshold=0.3966000378131867 0.35994644463062292 0.34536275267601019 0.33992490172386175 1.0000000180025095e-35 0.35035735368728643 0.33793374896049505 1.0000000180025095e-35 0.45035302639007574 0.57974430918693554 0.52193212509155285 0.59725272655487072 0.55667299032211315 1.0000000180025095e-35
decision_type=2 2 2 2 2 2 2 2 2 2 2 2 2 2
left_child=1 2 3 6 -3 -4 -1 8 -2 10 -10 12 13 -9
right_child=7 4 5 -5 -6 -7 -8 11 9 -11 -12 -13 -14 -15
leaf_value=0.0078138966164210365 -0.21270071299273363 0.33837589069225615 -0.21937168273548679 0.28558202989865711 0.055865697556223302 0.016785434707640549 -0.23842458850530934 -0.13521888458130957 -0.073914072822722179 -0.21073054211706171 0.1724083025706741 0.10209334312331193 -0.22652393518185227 0.14668435322375739
leaf_weight=78.323586371800047 3.1494914648355916 2.0177794761257237 3.8126975345076053 1.4891502133104939 3.8611309394495947 2.060423356128922 1.2127131135202933 2.233845151960848 2.7003761659143493 2.2459527307655662 2.4350971478270367 4.7669229358434686 3.1533440873026848 4.9053823354479391
leaf_count=4161 72 51 100 36 101 48 15 28 96 75 44 25 24 356
internal_value=0.000943664 0.00910573 -0.000617576 0.00923347 0.15283 -0.136522 0.00405943 -0.0286477 -0.0876424 -0.0342828 0.0428851 0.0126065 -0.0288386 0.0584776
internal_weight=118.368 92.7775 86.8986 81.0254 5.87891 5.87312 79.5363 25.5904 10.5309 7.38143 5.13547 15.0595 10.2926 7.13923
internal_count=5232 4512 4360 4212 152 148 4176 720 287 215 140 433 408 384
is_linear=0
shrinkage=0.190561


Tree=44
num_leaves=9
num_cat=0
split_feature=13 13 13 13 13 9 13 13
split_gain=0.604603 1.44821 0.64484 2.26231 1.00192 2.39336 0.897876 0.710905
threshold=0.6169414520263673 0.6100822687149049 0.3966000378131867 0.38108423352241522 0.44907465577125555 0.089587975293397917 0.53462135791778576 0.34347636997699743
decision_type=2 2 2 2 2 2 2 2
left_child=1 2 3 7 5 -4 -6 -1
right_child=-2 -3 4 -5 6 -7 -8 -9
leaf_value=0.0075921000818163081 -0.079110035959934821 0.21246008098302424 -0.21471688589435869 0.17586440400672648 0.042239818321284178 0.071907006236421142 -0.050048375802884799 -0.046555424282750481
leaf_weight=80.615758312433172 3.4006474972702554 1.1798227432882402 2.8791882037185159 2.7911587532016702 7.0819097033818244 1.672422249917872 8.3322143052355369 9.884445072543711
leaf_count=4192 55 14 34 95 175 349 93 225
internal_value=7.25326e-05 0.00242555 0.000237576 0.00688953 -0.0308442 -0.109401 -0.00764722 0.0016781
internal_weight=117.838 114.437 113.257 93.2914 19.9657 4.55161 15.4141 90.5002
internal_count=5232 5177 5163 4512 651 383 268 4417
is_linear=0
shrinkage=0.190561


Tree=45
num_leaves=19
num_cat=0
split_feature=1 1 1 1 2 13 13 13 12 13 8 12 2 2 14 0 2 1
split_gain=0.486345 2.40823 5.22345 2.59152 1.64986 1.00567 1.92907 5.4092 1.38308 1.28533 0.839275 0.585185 0.608133 0.830334 0.139088 0.0484157 0.0218195 0.000689654
threshold=0.40342013537883764 0.42622831463813787 0.43372693657875067 0.45163241028785711 0.58266347646713268 -1.0000000180025095e-35 1.0000000180025095e-35 0.33066916465759283 1.0000000180025095e-35 0.35035735368728643 1.0000000180025095e-35 1.0000000180025095e-35 0.58366879820823681 0.53704285621643078 1.0000000180025095e-35 1.0000000180025095e-35 0.59076857566833507 0.41510088741779333
decision_type=2 2 2 2 2 2 2 2 2 2 2 2 2 2 2 2 2 2
left_child=5 4 -3 -4 -2 11 8 -8 15 -9 -5 -1 13 -13 -10 -7 17 -6
right_child=1 2 3 10 16 6 7 9 14 -11 -12 12 -14 -15 -16 -17 -18 -19
leaf_value=0.049928965858033983 -0.022747400023883774 0.30343305140328736 -0.20919087710332387 0.057990136307645442 -0.20235570025606064 -0.14637275703236344 0.27498211329486855 -0.081254882727386804 -0.020550109480139443 0.0050715533442666503 -0.047693810730264782 0.038515325927863726 0.1191472115865371 -0.041381446182413434 0.093330923899058463 -0.19147835766497398 -0.23281144387929503 -0.19187586539468865
leaf_weight=21.469649451319128 3.8399442779154951 2.0313873775303355 2.2872489315923294 6.4700267297448573 0.24618613068014461 4.0767856471356918 2.543502890126546 7.7573679736815384 3.770847499370575 32.516901289343878 4.7188271236809669 8.7833675779402309 1.5646001715213049 10.219026317819951 0.43430740426992986 1.0966067947447298 0.5759676694869994 3.0918100130511448
leaf_count=277 68 13 75 307 6 426 44 177 31 920 244 747 11 307 681 230 4 664
internal_value=-0.000104785 -0.0247811 0.0185754 -0.0243641 -0.111492 0.00598657 -0.0116801 0.00546514 -0.0899568 -0.0115561 0.0134186 0.0279231 0.00495133 -0.00445122 -0.0087885 -0.155934 -0.198559 -0.192649
internal_weight=117.494 23.2614 15.5075 13.4761 7.75391 94.233 52.1963 42.8178 9.37855 40.2743 11.1889 42.0366 20.567 19.0024 4.20515 5.17339 3.91396 3.338
internal_count=5232 1381 639 626 742 3851 2509 1141 1368 1097 551 1342 1065 1054 712 656 674 670
is_linear=0
shrinkage=0.190561


Tree=46
num_leaves=14
num_cat=0
split_feature=15 2 13 7 13 13 13 2 9 2 13 2 1
split_gain=0.618781 0.840901 1.13933 0.685263 0.368462 1.03059 1.29081 0.296509 0.288484 0.043486 0.0471195 3.2061e-07 1.23663e-08
threshold=0.14931329339742663 0.65478873252868663 0.51710885763168346 1.0000000180025095e-35 0.6169414520263673 0.59725272655487072 0.55667299032211315 0.55949765443801891 0.1242453344166279 0.65278065204620372 0.47800385951995855 0.5347418785095216 0.33140207827091223
decision_type=2 2 2 2 2 2 2 2 2 2 2 2 2
left_child=3 2 9 4 5 6 -1 11 -9 10 -2 12 -5
right_child=1 -3 -4 7 -6 -7 -8 8 -10 -11 -12 -13 -14
leaf_value=0.002353120903090272 -0.19802397691164184 0.15988644823127088 0.11781688455910476 0.19071739102508364 -0.064448068464561359 0.11106237633278374 -0.11212852753018888 -0.11780364816028077 0.19073234236023412 -0.30230735501364314 -0.29058759471151674 0.19104717145195221 0.19066711553758039
leaf_weight=103.15752890019212 0.77609139159903795 0.36950127233285446 0.42162460973486293 0.62563237043150255 3.165893727913498 3.0312341041862956 3.7049543904140583 0.27586126734968275 0.18308221525512636 0.31815171730704594 0.26889799890341237 0.11082720179183525 0.24812263360945508
leaf_count=2404 393 22 65 1206 30 18 43 194 204 9 34 79 531
internal_value=-0.000592293 -0.101775 -0.155947 0.00131136 -0.000354403 0.00149205 -0.00161599 0.131777 0.00527785 -0.240623 -0.221843 0.190742 0.190703
internal_weight=116.657 2.15427 1.78477 114.503 113.06 109.894 106.862 1.44353 0.458943 1.36314 1.04499 0.984582 0.873755
internal_count=5232 523 501 4709 2495 2465 2447 2214 398 436 427 1816 1737
is_linear=0
shrinkage=0.190561


Tree=47
num_leaves=17
num_cat=0
split_feature=15 8 7 2 2 2 2 2 8 7 2 15 12 8 8 2
split_gain=0.461366 0.677613 0.552852 0.351469 1.61308 0.699364 0.565687 0.259601 0.465607 0.00114135 1.5393e-05 1.65762e-06 2.77831e-07 1.19437e-07 7.12144e-09 5.88197e-09
